{"learner":{"attributes":{"best_iteration":"99","best_ntree_limit":"100","scikit_learn":"{\"use_label_encoder\": false, \"n_estimators\": 100, \"objective\": \"binary:hinge\", \"max_depth\": 5, \"max_leaves\": null, \"max_bin\": null, \"grow_policy\": null, \"learning_rate\": null, \"verbosity\": null, \"booster\": null, \"tree_method\": null, \"gamma\": null, \"min_child_weight\": 2, \"max_delta_step\": null, \"subsample\": null, \"sampling_method\": null, \"colsample_bytree\": 0.5, \"colsample_bylevel\": null, \"colsample_bynode\": null, \"reg_alpha\": 1, \"reg_lambda\": 0.1, \"scale_pos_weight\": null, \"base_score\": null, \"missing\": NaN, \"num_parallel_tree\": null, \"random_state\": null, \"n_jobs\": null, \"monotone_constraints\": null, \"interaction_constraints\": null, \"importance_type\": null, \"gpu_id\": null, \"validate_parameters\": null, \"predictor\": null, \"enable_categorical\": false, \"max_cat_to_onehot\": null, \"eval_metric\": \"error\", \"early_stopping_rounds\": null, \"callbacks\": null, \"kwargs\": {\"eta\": 0.5}, \"classes_\": [0.0, 1.0], \"n_classes_\": 2, \"_estimator_type\": \"classifier\"}"},"feature_names":["Sex","Race","days_since_last_discharge","length_of_stay","readm","age_at_adm","ED","n_CPT","n_ICD","n_Lab","n_Med","median_systolic","median_diastolic","median_BMI","preg","change_in_BMI","max_EGFR","n_prev_ICD","n_prev_adm","n_prev_ED_adm","prev_median_BMI","median_systolic_ind","median_diastolic_ind","median_BMI_ind","change_in_BMI_ind","prev_median_BMI_ind"],"feature_types":["float","float","float","float","float","float","float","float","float","float","float","float","float","float","float","float","float","float","float","float","float","float","float","float","float","float"],"gradient_booster":{"model":{"gbtree_model_param":{"num_parallel_tree":"1","num_trees":"100","size_leaf_vector":"0"},"tree_info":[0,0,0,0,0,0,0,0,0,0,0,0,0,0,0,0,0,0,0,0,0,0,0,0,0,0,0,0,0,0,0,0,0,0,0,0,0,0,0,0,0,0,0,0,0,0,0,0,0,0,0,0,0,0,0,0,0,0,0,0,0,0,0,0,0,0,0,0,0,0,0,0,0,0,0,0,0,0,0,0,0,0,0,0,0,0,0,0,0,0,0,0,0,0,0,0,0,0,0,0],"trees":[{"base_weights":[-3.632943E-1,-5.4949594E-1,-6.1233487E-2,-6.2165517E-1,-4.6322668E-1,1.1711628E-1,-2.6141754E-1,-6.728797E-1,-5.6693757E-1,-5.853038E-1,-4.3083015E-1,-2.2415209E-1,2.3950338E-1,-3.526695E-1,-1.713385E-1,-6.75291E-1,7.3170733E-1,-5.7217664E-1,-0E0,-6.162884E-1,-2.1304926E-1,-4.5179883E-1,-2.394876E-1,-4.1092458E-1,-5.7382476E-2,3.301194E-1,6.478426E-2,-4.2708215E-1,-2.2714578E-1,-7.5187966E-2,-2.7385536E-1,-5.744789E-1,-7.020274E-1,-5.83718E-1,-3.7558687E-1,3.97351E-1,-6.593407E-1,-6.6089916E-1,-4.1692212E-1,-9.21659E-2,-8.910891E-1,-4.2058444E-1,-5.706972E-1,-2.0296879E-1,-6.185567E-1,-0E0,-4.4432402E-1,1.02417044E-1,-2.4868484E-1,-2.0408164E-1,3.4623218E-1,2.1613276E-1,-3.5771776E-3,-5.9679765E-1,-3.7458098E-1,-1.1078087E-1,-4.7875524E-1,-1.01125196E-1,2.3172906E-1,-2.8816766E-1,3.5460994E-1],"categories":[],"categories_nodes":[],"categories_segments":[],"categories_sizes":[],"default_left":[1,1,1,1,1,1,1,1,1,1,1,1,1,1,1,1,0,1,1,1,1,1,1,1,1,1,1,1,1,1,1,0,0,0,0,0,0,0,0,0,0,0,0,0,0,0,0,0,0,0,0,0,0,0,0,0,0,0,0,0,0],"id":0,"left_children":[1,3,5,7,9,11,13,15,17,19,21,23,25,27,29,31,-1,33,35,37,39,41,43,45,47,49,51,53,55,57,59,-1,-1,-1,-1,-1,-1,-1,-1,-1,-1,-1,-1,-1,-1,-1,-1,-1,-1,-1,-1,-1,-1,-1,-1,-1,-1,-1,-1,-1,-1],"loss_changes":[9.0228E2,6.0696045E1,2.1879475E2,1.385791E1,1.6870605E1,1.351824E2,2.3209824E1,9.405273E0,7.7853394E0,1.0035431E1,1.3686096E1,2.6070526E1,3.7348877E1,1.2684662E1,1.4031319E1,6.163208E0,0E0,4.911316E0,6.34015E0,6.615387E0,5.1640096E0,1.0961548E1,4.1369953E0,5.4775085E0,1.4000093E1,1.3629349E1,8.677023E0,6.955124E0,1.5130648E1,5.9066525E0,6.2500153E0,0E0,0E0,0E0,0E0,0E0,0E0,0E0,0E0,0E0,0E0,0E0,0E0,0E0,0E0,0E0,0E0,0E0,0E0,0E0,0E0,0E0,0E0,0E0,0E0,0E0,0E0,0E0,0E0,0E0,0E0],"parents":[2147483647,0,0,1,1,2,2,3,3,4,4,5,5,6,6,7,7,8,8,9,9,10,10,11,11,12,12,13,13,14,14,15,15,17,17,18,18,19,19,20,20,21,21,22,22,23,23,24,24,25,25,26,26,27,27,28,28,29,29,30,30],"right_children":[2,4,6,8,10,12,14,16,18,20,22,24,26,28,30,32,-1,34,36,38,40,42,44,46,48,50,52,54,56,58,60,-1,-1,-1,-1,-1,-1,-1,-1,-1,-1,-1,-1,-1,-1,-1,-1,-1,-1,-1,-1,-1,-1,-1,-1,-1,-1,-1,-1,-1,-1],"split_conditions":[5E-1,5.15E1,3.75E1,2.55E1,1.15E1,3.45E1,5.45E1,9.35E1,4.15E1,4.25E1,1.45E1,2.85E1,3.55E1,1.75E1,5.75E1,5E-1,3.6585367E-1,2.5E0,4.7E1,6.45E1,6.45E1,6.55E1,8.3E1,5E-1,1.65E1,1.05E1,8.5E0,2.35E1,6.75E1,5E-1,6.35E1,-2.8723946E-1,-3.510137E-1,-2.91859E-1,-1.8779343E-1,1.986755E-1,-3.2967034E-1,-3.3044958E-1,-2.0846106E-1,-4.608295E-2,-4.4554454E-1,-2.1029222E-1,-2.853486E-1,-1.01484396E-1,-3.0927834E-1,-0E0,-2.2216201E-1,5.1208522E-2,-1.2434242E-1,-1.0204082E-1,1.7311609E-1,1.0806638E-1,-1.7885888E-3,-2.9839882E-1,-1.8729049E-1,-5.5390436E-2,-2.3937762E-1,-5.0562598E-2,1.1586453E-1,-1.4408383E-1,1.7730497E-1],"split_indices":[4,9,5,9,8,9,9,7,8,7,3,10,7,8,5,8,0,16,8,10,5,5,8,3,7,10,5,10,5,22,8,0,0,0,0,0,0,0,0,0,0,0,0,0,0,0,0,0,0,0,0,0,0,0,0,0,0,0,0,0,0],"split_type":[0,0,0,0,0,0,0,0,0,0,0,0,0,0,0,0,0,0,0,0,0,0,0,0,0,0,0,0,0,0,0,0,0,0,0,0,0,0,0,0,0,0,0,0,0,0,0,0,0,0,0,0,0,0,0,0,0,0,0,0,0],"sum_hessian":[1.6053E4,9.929E3,6.124E3,5.4E3,4.529E3,3.236E3,2.888E3,2.779E3,2.621E3,9.43E2,3.586E3,8.52E2,2.384E3,1.429E3,1.459E3,2.775E3,4E0,2.597E3,2.4E1,8.68E2,7.5E1,3.227E3,3.59E2,3.99E2,4.53E2,1.566E3,8.18E2,8.92E2,5.37E2,7.58E2,7.01E2,5.9E2,2.185E3,2.448E3,1.49E2,1.5E1,9E0,7.05E2,1.63E2,6.5E1,1E1,2.563E3,6.64E2,3.3E2,2.9E1,3E1,3.69E2,2.44E2,2.09E2,4.4E1,1.522E3,2.59E2,5.59E2,2.06E2,6.86E2,3.7E2,1.67E2,7.02E2,5.6E1,6.87E2,1.4E1],"tree_param":{"num_deleted":"0","num_feature":"26","num_nodes":"61","size_leaf_vector":"0"}},{"base_weights":[-3.632943E-1,-4.649048E-1,-1.4901976E-1,-5.243588E-1,-3.5313383E-1,-1.9264638E-1,2.0242915E-1,-5.7809687E-1,-4.093335E-1,-1.4008054E-1,-3.906566E-1,-2.337389E-1,-9.495289E-2,3.2258064E-1,-9.253547E-2,-6.376314E-1,-4.4676492E-1,-4.3704832E-1,-1.6302016E-1,6.060606E-1,-1.7332603E-1,-3.6171216E-1,-5.634729E-1,-3.113303E-1,-1.4866525E-1,1.6981533E-2,-1.5477118E-1,3.7761477E-1,-1.8372704E-1,-1.8102825E-1,3.73444E-1,-6.7219585E-1,-4.6503308E-1,-4.8966518E-1,-1.6328551E-1,-2.561949E-1,-4.6044207E-1,1.32362675E-2,-4.99391E-1,-0E0,7.329843E-1,1.03675775E-1,-2.4202669E-1,-4.3592396E-1,-2.9891485E-1,-5.83202E-1,8.264463E-2,-2.637978E-1,-5.059798E-1,-8.099805E-2,-3.0014795E-1,-3.4065104E-1,1.5924506E-1,-1.9406246E-1,9.1590345E-2,4.2270905E-1,2.2675738E-2,3.7037036E-1,-3.654485E-1,-2.3827825E-1,6.1728394E-1,-0E0,7.4380165E-1],"categories":[],"categories_nodes":[],"categories_segments":[],"categories_sizes":[],"default_left":[1,1,1,1,1,1,1,1,1,1,1,1,1,1,1,1,1,1,1,1,1,1,1,1,1,1,1,1,1,1,1,0,0,0,0,0,0,0,0,0,0,0,0,0,0,0,0,0,0,0,0,0,0,0,0,0,0,0,0,0,0,0,0],"id":1,"left_children":[1,3,5,7,9,11,13,15,17,19,21,23,25,27,29,31,33,35,37,39,41,43,45,47,49,51,53,55,57,59,61,-1,-1,-1,-1,-1,-1,-1,-1,-1,-1,-1,-1,-1,-1,-1,-1,-1,-1,-1,-1,-1,-1,-1,-1,-1,-1,-1,-1,-1,-1,-1,-1],"loss_changes":[3.4889575E2,7.1444824E1,7.9218834E1,4.2876343E1,2.9731201E1,1.813205E1,2.0366743E1,3.6676147E1,1.4869202E1,1.3744377E1,1.5136597E1,2.0857208E1,9.305172E0,1.15164795E1,6.4986696E0,1.8638428E1,1.7740387E1,7.877533E0,1.4306737E1,1.7769318E0,1.0571318E1,1.2110352E1,6.319412E0,1.47892E1,1.5474834E1,2.3792677E1,8.7977295E0,5.445362E0,3.8449557E0,5.9473395E0,3.333219E0,0E0,0E0,0E0,0E0,0E0,0E0,0E0,0E0,0E0,0E0,0E0,0E0,0E0,0E0,0E0,0E0,0E0,0E0,0E0,0E0,0E0,0E0,0E0,0E0,0E0,0E0,0E0,0E0,0E0,0E0,0E0,0E0],"parents":[2147483647,0,0,1,1,2,2,3,3,4,4,5,5,6,6,7,7,8,8,9,9,10,10,11,11,12,12,13,13,14,14,15,15,16,16,17,17,18,18,19,19,20,20,21,21,22,22,23,23,24,24,25,25,26,26,27,27,28,28,29,29,30,30],"right_children":[2,4,6,8,10,12,14,16,18,20,22,24,26,28,30,32,34,36,38,40,42,44,46,48,50,52,54,56,58,60,62,-1,-1,-1,-1,-1,-1,-1,-1,-1,-1,-1,-1,-1,-1,-1,-1,-1,-1,-1,-1,-1,-1,-1,-1,-1,-1,-1,-1,-1,-1,-1,-1],"split_conditions":[7.5E0,3.25E-1,3.15E1,3.5E0,2.03625E1,1.65E1,4E0,1.85E1,5E-1,5E-1,1.3925E2,7.5E-2,5.5E0,5E-1,1.38E2,5E-1,5E-1,1.8365002E1,2.242E1,1.5E0,1.623E1,2.5E0,5E-1,2.8342499E1,1.5E0,6.325E1,3.30125E1,2.25E1,1.085E2,7.925E1,1.5E0,-3.3609793E-1,-2.3251654E-1,-2.4483259E-1,-8.1642754E-2,-1.2809744E-1,-2.3022103E-1,6.6181337E-3,-2.496955E-1,-0E0,3.6649215E-1,5.1837888E-2,-1.2101334E-1,-2.1796198E-1,-1.4945742E-1,-2.91601E-1,4.1322313E-2,-1.318989E-1,-2.529899E-1,-4.0499024E-2,-1.5007398E-1,-1.7032552E-1,7.962253E-2,-9.703123E-2,4.5795172E-2,2.1135452E-1,1.1337869E-2,1.8518518E-1,-1.8272425E-1,-1.1913913E-1,3.0864197E-1,-0E0,3.7190083E-1],"split_indices":[18,15,18,18,20,18,1,17,21,17,11,15,1,16,11,21,21,20,20,18,20,18,14,20,16,12,20,17,11,12,16,0,0,0,0,0,0,0,0,0,0,0,0,0,0,0,0,0,0,0,0,0,0,0,0,0,0,0,0,0,0,0,0],"split_type":[0,0,0,0,0,0,0,0,0,0,0,0,0,0,0,0,0,0,0,0,0,0,0,0,0,0,0,0,0,0,0,0,0,0,0,0,0,0,0,0,0,0,0,0,0,0,0,0,0,0,0,0,0,0,0,0,0,0,0,0,0,0,0],"sum_hessian":[1.6053E4,1.0886E4,5.167E3,7.1E3,3.786E3,4.599E3,5.68E2,4.833E3,2.267E3,5.71E2,3.215E3,3.23E3,1.369E3,4.06E2,1.62E2,3.32E3,1.513E3,2.034E3,2.33E2,2.3E1,5.48E2,2.759E3,4.56E2,1.683E3,1.547E3,4.71E2,8.98E2,3.68E2,3.8E1,1.38E2,2.4E1,2.761E3,5.59E2,1.311E3,2.02E2,2.38E2,1.796E3,1.51E2,8.2E1,4E0,1.9E1,1.06E2,4.42E2,1.257E3,1.502E3,4.44E2,1.2E1,1.357E3,3.26E2,1.074E3,4.73E2,1.32E2,3.39E2,7.78E2,1.2E2,3.24E2,4.4E1,8E0,3E1,1.3E2,8E0,1.2E1,1.2E1],"tree_param":{"num_deleted":"0","num_feature":"26","num_nodes":"63","size_leaf_vector":"0"}},{"base_weights":[-3.6380404E-1,-5.4949594E-1,-6.2274236E-2,-6.042844E-1,-4.9814025E-1,1.154763E-1,-2.6141754E-1,-6.2601095E-1,-4.6465266E-1,-4.3905237E-1,-5.679928E-1,1.8172354E-1,-8.95175E-3,-2.1908407E-1,-4.161925E-1,-6.331365E-1,-3.0818278E-1,-6.8860453E-1,-3.8721573E-1,-3.446861E-1,-4.720509E-1,-6.161013E-1,-4.7740835E-1,2.7203038E-1,-2.5035206E-2,1.3949884E-1,-8.90289E-2,-3.0297676E-1,-1.3495749E-1,-1.955105E-1,-4.7788724E-1,-6.0097915E-1,-6.8977374E-1,7.3170733E-1,-3.6625972E-1,-7.07635E-1,-0E0,-3.2082498E-1,-5.463695E-1,-3.2712275E-1,-7.4733096E-1,-4.7877324E-1,-0E0,-0E0,-6.2156254E-1,-4.9857357E-1,-2.8202116E-1,3.8106877E-1,9.928584E-2,-0E0,-5.338078E-1,-2.4485798E-1,2.806033E-1,2.0248039E-2,-2.208296E-1,-3.1728765E-1,2.0618556E-1,-1.432234E-1,6.930693E-1,-3.7453182E-2,-3.958692E-1,-5.711472E-1,-4.049617E-1],"categories":[],"categories_nodes":[],"categories_segments":[],"categories_sizes":[],"default_left":[1,1,1,1,1,1,1,1,1,1,1,1,1,1,1,1,1,1,1,1,1,1,1,1,1,1,1,1,1,1,1,0,0,0,0,0,0,0,0,0,0,0,0,0,0,0,0,0,0,0,0,0,0,0,0,0,0,0,0,0,0,0,0],"id":2,"left_children":[1,3,5,7,9,11,13,15,17,19,21,23,25,27,29,31,33,35,37,39,41,43,45,47,49,51,53,55,57,59,61,-1,-1,-1,-1,-1,-1,-1,-1,-1,-1,-1,-1,-1,-1,-1,-1,-1,-1,-1,-1,-1,-1,-1,-1,-1,-1,-1,-1,-1,-1,-1,-1],"loss_changes":[8.978884E2,2.6805176E1,2.1671642E2,1.3424194E1,2.0162842E1,2.6798695E1,1.82789E1,8.419678E0,1.0206345E1,7.8551636E0,9.096741E0,3.970292E1,1.3230298E1,1.5600616E1,7.6917953E0,6.0406494E0,5.344392E0,2.858078E0,4.272705E0,4.0712814E0,6.055359E0,4.506531E0,2.600937E0,2.7281685E1,7.606554E0,2.1036777E1,1.07164955E1,8.36676E0,7.2702217E0,3.9385676E0,2.2455368E0,0E0,0E0,0E0,0E0,0E0,0E0,0E0,0E0,0E0,0E0,0E0,0E0,0E0,0E0,0E0,0E0,0E0,0E0,0E0,0E0,0E0,0E0,0E0,0E0,0E0,0E0,0E0,0E0,0E0,0E0,0E0,0E0],"parents":[2147483647,0,0,1,1,2,2,3,3,4,4,5,5,6,6,7,7,8,8,9,9,10,10,11,11,12,12,13,13,14,14,15,15,16,16,17,17,18,18,19,19,20,20,21,21,22,22,23,23,24,24,25,25,26,26,27,27,28,28,29,29,30,30],"right_children":[2,4,6,8,10,12,14,16,18,20,22,24,26,28,30,32,34,36,38,40,42,44,46,48,50,52,54,56,58,60,62,-1,-1,-1,-1,-1,-1,-1,-1,-1,-1,-1,-1,-1,-1,-1,-1,-1,-1,-1,-1,-1,-1,-1,-1,-1,-1,-1,-1,-1,-1,-1,-1],"split_conditions":[5E-1,1.45E1,3.75E1,5E-1,5.35E1,5E-1,6.75E1,1.85E1,2.15E1,2.5E0,4.5E0,5.5E0,1.5E0,1.95E1,1.5E0,5E-1,1.5535E1,2.1E1,5.75E1,5.3E1,8.15E1,1.73625E1,1.55E1,2.05E1,1.5E0,1.75E1,1.25E1,4.297E1,4.8695E1,7.55E1,3.5E0,-3.0048957E-1,-3.4488687E-1,3.6585367E-1,-1.8312986E-1,-3.538175E-1,-0E0,-1.6041249E-1,-2.7318475E-1,-1.6356137E-1,-3.7366548E-1,-2.3938662E-1,-0E0,-0E0,-3.1078127E-1,-2.4928679E-1,-1.4101058E-1,1.9053438E-1,4.964292E-2,-0E0,-2.669039E-1,-1.2242899E-1,1.4030164E-1,1.0124019E-2,-1.104148E-1,-1.5864383E-1,1.0309278E-1,-7.16117E-2,3.4653464E-1,-1.8726591E-2,-1.979346E-1,-2.855736E-1,-2.0248085E-1],"split_indices":[4,17,5,19,5,25,5,3,5,1,3,3,1,17,1,23,20,3,5,17,17,20,3,5,19,5,5,20,20,5,3,0,0,0,0,0,0,0,0,0,0,0,0,0,0,0,0,0,0,0,0,0,0,0,0,0,0,0,0,0,0,0,0],"split_type":[0,0,0,0,0,0,0,0,0,0,0,0,0,0,0,0,0,0,0,0,0,0,0,0,0,0,0,0,0,0,0,0,0,0,0,0,0,0,0,0,0,0,0,0,0,0,0,0,0,0,0,0,0,0,0,0,0,0,0,0,0,0,0],"sum_hessian":[1.6047E4,9.929E3,6.118E3,4.794E3,5.135E3,3.23E3,2.888E3,4.142E3,6.52E2,2.79E3,2.345E3,2.113E3,1.117E3,2.273E3,6.15E2,4.048E3,9.4E1,1.64E2,4.88E2,7.31E2,2.059E3,1.524E3,8.21E2,1.474E3,6.39E2,3.87E2,7.3E2,1.132E3,1.141E3,1.38E2,4.77E2,2.594E3,1.454E3,4E0,9E1,1.61E2,3E0,3.49E2,1.39E2,7.03E2,2.8E1,2.028E3,3.1E1,1.5E1,1.509E3,7.36E2,8.5E1,9E2,5.74E2,6.11E2,2.8E1,1.02E2,2.85E2,3.95E2,3.35E2,1.103E3,2.9E1,1.131E3,1E1,8E1,5.8E1,2.03E2,2.74E2],"tree_param":{"num_deleted":"0","num_feature":"26","num_nodes":"63","size_leaf_vector":"0"}},{"base_weights":[-3.686656E-1,-4.3185246E-1,-2.7958027E-1,-5.211159E-1,-3.7820086E-1,-2.5520375E-1,-4.0499023E-1,-6.029731E-1,-4.343239E-1,-3.9205408E-1,-2.296575E-1,-4.832714E-1,-2.446443E-1,-5.22962E-1,-3.165886E-1,-2.8945553E-1,-6.298831E-1,-4.8313642E-1,-4.1862898E-2,-3.6814958E-1,-4.5135012E-1,-3.7487984E-1,-0E0,-5.7276446E-1,-2.5316456E-1,-2.04847E-1,-3.028192E-1,-5.702085E-1,-1.7513135E-1,-4.1513696E-1,-1.8106376E-1,1.0471204E-1,-3.5685962E-1,-6.5914536E-1,-5.208625E-1,-4.870624E-1,7.3170733E-1,-3.8817006E-1,8.752735E-2,-3.883073E-1,-2.582903E-1,-7.4608904E-1,-4.3360433E-1,-7.2796935E-1,-3.390423E-1,-1.5712683E-1,1.4409222E-1,-6.056935E-1,1.6393442E-1,-3.8528895E-1,2.1276596E-1,-9.551967E-2,-2.8207755E-1,-3.6419398E-1,-1.3773167E-1,-5.899243E-1,-0E0,4.1322315E-1,-3.5476717E-1,-4.3465662E-1,2.1978022E-1,-2.3858495E-1,4.0723982E-1],"categories":[],"categories_nodes":[],"categories_segments":[],"categories_sizes":[],"default_left":[1,1,1,1,1,1,1,1,1,1,1,1,1,1,1,1,1,1,1,1,1,1,1,1,1,1,1,1,1,1,1,0,0,0,0,0,0,0,0,0,0,0,0,0,0,0,0,0,0,0,0,0,0,0,0,0,0,0,0,0,0,0,0],"id":3,"left_children":[1,3,5,7,9,11,13,15,17,19,21,23,25,27,29,31,33,35,37,39,41,43,45,47,49,51,53,55,57,59,61,-1,-1,-1,-1,-1,-1,-1,-1,-1,-1,-1,-1,-1,-1,-1,-1,-1,-1,-1,-1,-1,-1,-1,-1,-1,-1,-1,-1,-1,-1,-1,-1],"loss_changes":[8.928516E1,4.3850098E1,1.9634766E1,2.3817383E1,1.1399414E1,1.2669739E1,1.0345566E1,1.4215637E1,3.215674E1,6.734558E0,1.7220675E1,4.1451263E0,1.1817139E1,6.723694E0,7.6648293E0,4.1109753E0,4.0529785E0,7.017212E0,8.866997E0,7.8008423E0,6.7490845E0,2.8575783E0,4.361159E0,4.6023674E0,4.5576935E0,2.6411499E1,2.1308731E1,3.885559E0,5.9910774E0,4.612919E0,8.812026E0,0E0,0E0,0E0,0E0,0E0,0E0,0E0,0E0,0E0,0E0,0E0,0E0,0E0,0E0,0E0,0E0,0E0,0E0,0E0,0E0,0E0,0E0,0E0,0E0,0E0,0E0,0E0,0E0,0E0,0E0,0E0,0E0],"parents":[2147483647,0,0,1,1,2,2,3,3,4,4,5,5,6,6,7,7,8,8,9,9,10,10,11,11,12,12,13,13,14,14,15,15,16,16,17,17,18,18,19,19,20,20,21,21,22,22,23,23,24,24,25,25,26,26,27,27,28,28,29,29,30,30],"right_children":[2,4,6,8,10,12,14,16,18,20,22,24,26,28,30,32,34,36,38,40,42,44,46,48,50,52,54,56,58,60,62,-1,-1,-1,-1,-1,-1,-1,-1,-1,-1,-1,-1,-1,-1,-1,-1,-1,-1,-1,-1,-1,-1,-1,-1,-1,-1,-1,-1,-1,-1,-1,-1],"split_conditions":[8.5E-2,3.35E1,1.3575E2,9.5E0,5E-1,1.55E1,7.575E1,5E-1,5E-1,1.2825E2,1.85E1,1.65E1,5.5E0,3.95E1,1.695E0,3.5E0,5E-1,1.0275E2,5E-1,7.325E1,5.675E1,5.5E0,1.85E1,1.45E1,6.95E1,1.35E1,1.45E1,5E-1,1.53E0,5E-1,4.45E1,5.235602E-2,-1.7842981E-1,-3.2957268E-1,-2.6043126E-1,-2.435312E-1,3.6585367E-1,-1.9408503E-1,4.3763675E-2,-1.9415365E-1,-1.2914515E-1,-3.7304452E-1,-2.1680216E-1,-3.6398467E-1,-1.6952115E-1,-7.8563415E-2,7.204611E-2,-3.0284676E-1,8.196721E-2,-1.9264448E-1,1.0638298E-1,-4.7759835E-2,-1.4103878E-1,-1.8209699E-1,-6.8865836E-2,-2.9496214E-1,-0E0,2.0661157E-1,-1.7738359E-1,-2.1732831E-1,1.0989011E-1,-1.19292475E-1,2.0361991E-1],"split_indices":[15,10,11,8,21,10,12,3,21,11,8,17,3,8,15,17,21,12,25,12,12,8,17,3,12,8,3,6,15,14,8,0,0,0,0,0,0,0,0,0,0,0,0,0,0,0,0,0,0,0,0,0,0,0,0,0,0,0,0,0,0,0,0],"split_type":[0,0,0,0,0,0,0,0,0,0,0,0,0,0,0,0,0,0,0,0,0,0,0,0,0,0,0,0,0,0,0,0,0,0,0,0,0,0,0,0,0,0,0,0,0,0,0,0,0,0,0,0,0,0,0,0,0,0,0,0,0,0,0],"sum_hessian":[1.599E4,9.348E3,6.642E3,3.502E3,5.846E3,5.568E3,1.074E3,1.796E3,1.706E3,5.341E3,5.05E2,2.42E2,5.326E3,4.55E2,6.19E2,1.45E2,1.651E3,1.515E3,1.91E2,3.819E3,1.522E3,3.12E2,1.93E2,1.71E2,7.1E1,3.173E3,2.153E3,3.98E2,5.7E1,3.54E2,2.65E2,1.9E1,1.26E2,1.294E3,3.57E2,1.511E3,4E0,5.4E1,1.37E2,3.219E3,6E2,8.3E1,1.439E3,2.6E1,2.86E2,8.9E1,1.04E2,1.65E2,6E0,5.7E1,1.4E1,1.319E3,1.854E3,1.565E3,5.88E2,3.83E2,1.5E1,1.2E1,4.5E1,3.45E2,9E0,2.43E2,2.2E1],"tree_param":{"num_deleted":"0","num_feature":"26","num_nodes":"63","size_leaf_vector":"0"}},{"base_weights":[-3.6388904E-1,-8.706808E-2,-5.7459027E-1,-2.7933523E-2,-2.366019E-1,-4.0352625E-1,-6.469108E-1,2.9488993E-1,-6.382362E-2,-3.5913482E-1,-1.6230324E-1,-4.7549567E-1,-3.486191E-1,-6.8579715E-1,-5.028914E-1,3.2697546E-1,-4.9723756E-1,-2.6117333E-3,-1.9533178E-1,-3.900451E-1,6.2370062E-2,-0E0,-2.2244467E-1,-5.141118E-1,-2.970297E-1,-3.6129206E-1,-0E0,-6.281677E-1,-7.522219E-1,-5.387435E-1,-2.7964786E-1,4.2964555E-2,3.931268E-1,-7.633588E-1,-0E0,1.3521895E-1,-5.2279472E-2,-1.11795E-1,-3.0059475E-1,-4.095053E-1,2.762431E-1,2.7431422E-1,-8.6419755E-1,-4.3318894E-2,5.1660514E-1,-2.3855725E-1,3.4632036E-1,-7.7834177E-1,-4.9547032E-1,-1.8113679E-1,-6.3339734E-1,-3.640401E-1,6.451613E-1,3.202847E-1,-3.4364262E-1,-5.4454696E-1,-6.5471816E-1,-7.807872E-1,-6.3757676E-1,-5.465849E-1,-0E0,-7.633588E-1,-2.3875624E-1],"categories":[],"categories_nodes":[],"categories_segments":[],"categories_sizes":[],"default_left":[1,1,1,1,1,1,1,1,1,1,1,1,1,1,1,1,1,1,1,1,1,1,1,1,1,1,1,1,1,1,1,0,0,0,0,0,0,0,0,0,0,0,0,0,0,0,0,0,0,0,0,0,0,0,0,0,0,0,0,0,0,0,0],"id":4,"left_children":[1,3,5,7,9,11,13,15,17,19,21,23,25,27,29,31,33,35,37,39,41,43,45,47,49,51,53,55,57,59,61,-1,-1,-1,-1,-1,-1,-1,-1,-1,-1,-1,-1,-1,-1,-1,-1,-1,-1,-1,-1,-1,-1,-1,-1,-1,-1,-1,-1,-1,-1,-1,-1],"loss_changes":[9.3524634E2,6.1076923E1,1.1161621E2,5.742472E1,1.7326653E1,9.872589E0,3.4608643E1,1.2429386E1,3.5874245E1,9.907608E0,1.219059E1,7.2030945E0,6.4694214E0,1.783545E1,1.0100464E1,8.525829E0,3.1584496E0,2.0886951E1,1.20540695E1,9.053581E0,8.879729E0,7.795618E0,8.140091E0,3.3822632E0,7.4422073E0,3.8609009E0,6.3189883E0,4.7664795E0,6.159424E0,5.50235E0,2.7991228E0,0E0,0E0,0E0,0E0,0E0,0E0,0E0,0E0,0E0,0E0,0E0,0E0,0E0,0E0,0E0,0E0,0E0,0E0,0E0,0E0,0E0,0E0,0E0,0E0,0E0,0E0,0E0,0E0,0E0,0E0,0E0,0E0],"parents":[2147483647,0,0,1,1,2,2,3,3,4,4,5,5,6,6,7,7,8,8,9,9,10,10,11,11,12,12,13,13,14,14,15,15,16,16,17,17,18,18,19,19,20,20,21,21,22,22,23,23,24,24,25,25,26,26,27,27,28,28,29,29,30,30],"right_children":[2,4,6,8,10,12,14,16,18,20,22,24,26,28,30,32,34,36,38,40,42,44,46,48,50,52,54,56,58,60,62,-1,-1,-1,-1,-1,-1,-1,-1,-1,-1,-1,-1,-1,-1,-1,-1,-1,-1,-1,-1,-1,-1,-1,-1,-1,-1,-1,-1,-1,-1,-1,-1],"split_conditions":[3.95E1,2.15E1,9.55E1,1.7994999E1,2.25E1,2.45E1,4.25E1,1.295E2,5.5E0,1.5E0,4.5E0,5E-1,5.65E1,3.345E2,8.55E1,1.55E1,4.6E1,1.5E0,1.175E2,1.5525E2,3.55E1,5E-1,1.515E2,1.6855E1,1.295E2,1.795E2,1.125E2,1.5E0,2.985E1,2.35E1,1.6945E1,2.1482278E-2,1.965634E-1,-3.816794E-1,-0E0,6.7609474E-2,-2.6139736E-2,-5.58975E-2,-1.5029737E-1,-2.0475265E-1,1.3812155E-1,1.3715711E-1,-4.3209878E-1,-2.1659447E-2,2.5830257E-1,-1.19278625E-1,1.7316018E-1,-3.8917089E-1,-2.4773516E-1,-9.056839E-2,-3.1669867E-1,-1.8202005E-1,3.2258064E-1,1.6014235E-1,-1.7182131E-1,-2.7227348E-1,-3.2735908E-1,-3.903936E-1,-3.1878838E-1,-2.7329245E-1,-0E0,-3.816794E-1,-1.1937812E-1],"split_indices":[2,2,2,13,7,7,7,11,3,19,1,19,8,2,7,7,7,1,11,11,2,21,11,13,11,11,7,1,13,3,13,0,0,0,0,0,0,0,0,0,0,0,0,0,0,0,0,0,0,0,0,0,0,0,0,0,0,0,0,0,0,0,0],"split_type":[0,0,0,0,0,0,0,0,0,0,0,0,0,0,0,0,0,0,0,0,0,0,0,0,0,0,0,0,0,0,0,0,0,0,0,0,0,0,0,0,0,0,0,0,0,0,0,0,0,0,0,0,0,0,0,0,0,0,0,0,0,0,0],"sum_hessian":[1.6046E4,6.937E3,9.109E3,4.976E3,1.961E3,2.711E3,6.398E3,4.95E2,4.481E3,7.35E2,1.226E3,1.165E3,1.546E3,5.032E3,1.366E3,4.77E2,1.8E1,3.063E3,1.418E3,6.87E2,4.8E1,3.27E2,8.99E2,9.53E2,2.12E2,1.489E3,5.7E1,2.703E3,2.329E3,1.173E3,1.93E2,9.3E1,3.84E2,1.3E1,5E0,8.06E2,2.257E3,7.96E2,6.22E2,6.69E2,1.8E1,4E1,8E0,3E2,2.7E1,8.76E2,2.3E1,5.9E1,8.94E2,1.6E2,5.2E1,1.486E3,3E0,2.8E1,2.9E1,6.61E2,2.042E3,1.857E3,4.72E2,1.158E3,1.5E1,1.3E1,1.8E2],"tree_param":{"num_deleted":"0","num_feature":"26","num_nodes":"63","size_leaf_vector":"0"}},{"base_weights":[-3.1147885E-1,-3.803022E-1,-9.665469E-2,-4.9730766E-1,-3.2587224E-1,-1.5016006E-1,1.9103731E-1,-4.984336E-1,2.4390244E-1,-2.4426481E-1,-4.138194E-1,-4.0259388E-1,-1.1465734E-1,2.2880216E-1,-2.7431422E-1,-4.615105E-1,-5.3009886E-1,-0E0,4.7619048E-1,-4.068727E-1,-2.0044045E-1,-4.3758044E-1,-1.7163505E-1,-6.309148E-1,-3.1988367E-1,-2.8186878E-2,-2.1271452E-1,2.0903175E-1,9.160305E-1,-9.0909094E-1,-0E0,-4.7096652E-1,-2.1505377E-1,-5.48055E-1,-4.1836357E-1,-5.331641E-1,-3.2880902E-1,-2.2087453E-1,5.1925573E-2,-4.421779E-1,-0E0,-6.907761E-2,-4.5296168E-1,-7.4875206E-1,-3.988604E-1,-2.2048016E-1,-5.907173E-1,2.2766598E-2,-2.0554344E-1,-2.2066607E-1,4.5801526E-1,2.5286818E-1,-1.2484395E-2,-2.0942408E-1,4.3956044E-1],"categories":[],"categories_nodes":[],"categories_segments":[],"categories_sizes":[],"default_left":[1,1,1,1,1,1,1,1,1,1,1,1,1,1,1,1,1,0,0,1,1,1,1,1,1,1,1,1,0,0,1,0,0,0,0,0,0,0,0,0,0,0,0,0,0,0,0,0,0,0,0,0,0,0,0],"id":5,"left_children":[1,3,5,7,9,11,13,15,17,19,21,23,25,27,29,31,33,-1,-1,35,37,39,41,43,45,47,49,51,-1,-1,53,-1,-1,-1,-1,-1,-1,-1,-1,-1,-1,-1,-1,-1,-1,-1,-1,-1,-1,-1,-1,-1,-1,-1,-1],"loss_changes":[2.1805676E2,7.043237E1,5.5224648E1,3.2268677E0,5.419464E1,2.6634148E1,9.803921E0,3.1264648E0,2.3228803E-1,2.7683334E1,2.0520325E1,6.0181656E0,2.2313622E1,5.9222775E0,6.982544E0,3.151703E0,2.8068237E0,0E0,0E0,7.3831177E0,1.632708E1,6.279297E0,9.056627E0,1.4230003E0,6.581972E0,1.3007558E1,6.391964E0,5.1648808E0,0E0,0E0,2.5959382E0,0E0,0E0,0E0,0E0,0E0,0E0,0E0,0E0,0E0,0E0,0E0,0E0,0E0,0E0,0E0,0E0,0E0,0E0,0E0,0E0,0E0,0E0,0E0,0E0],"parents":[2147483647,0,0,1,1,2,2,3,3,4,4,5,5,6,6,7,7,8,8,9,9,10,10,11,11,12,12,13,13,14,14,15,15,16,16,19,19,20,20,21,21,22,22,23,23,24,24,25,25,26,26,27,27,30,30],"right_children":[2,4,6,8,10,12,14,16,18,20,22,24,26,28,30,32,34,-1,-1,36,38,40,42,44,46,48,50,52,-1,-1,54,-1,-1,-1,-1,-1,-1,-1,-1,-1,-1,-1,-1,-1,-1,-1,-1,-1,-1,-1,-1,-1,-1,-1,-1],"split_conditions":[1.05E1,3.75E1,3.15E1,9.8E1,5E-1,1.5E0,1.05E2,2.5E0,5E-1,1.5E0,1.45E1,1.85E1,6.15E1,5E-1,5.25E1,9.5E0,3.35E1,-0E0,2.3809524E-1,3.75E1,5E-1,5E-1,2.95E1,1.95E1,1.15E1,5E-1,2.385E2,5E-1,4.5801526E-1,-4.5454547E-1,1.45E1,-2.3548326E-1,-1.0752688E-1,-2.740275E-1,-2.0918179E-1,-2.6658204E-1,-1.6440451E-1,-1.1043727E-1,2.5962787E-2,-2.2108895E-1,-0E0,-3.4538805E-2,-2.2648084E-1,-3.7437603E-1,-1.994302E-1,-1.1024008E-1,-2.9535866E-1,1.1383299E-2,-1.0277172E-1,-1.1033303E-1,2.2900763E-1,1.2643409E-1,-6.2421975E-3,-1.0471204E-1,2.1978022E-1],"split_indices":[18,9,18,7,16,9,10,3,0,18,3,10,10,14,9,18,9,0,0,10,21,14,3,18,7,16,10,16,0,0,3,0,0,0,0,0,0,0,0,0,0,0,0,0,0,0,0,0,0,0,0,0,0,0,0],"split_type":[0,0,0,0,0,0,0,0,0,0,0,0,0,0,0,0,0,0,0,0,0,0,0,0,0,0,0,0,0,0,0,0,0,0,0,0,0,0,0,0,0,0,0,0,0,0,0,0,0,0,0,0,0,0,0],"sum_hessian":[1.4781E4,1.1191E4,3.59E3,3.547E3,7.644E3,3.03E3,5.6E2,3.543E3,4E0,3.971E3,3.673E3,3.7E2,2.66E3,5.2E2,4E1,1.651E3,1.892E3,2E0,2E0,8.38E2,3.133E3,3.341E3,3.32E2,9.5E1,2.75E2,1.419E3,1.241E3,5.07E2,1.3E1,1.2E1,2.8E1,1.586E3,6.5E1,1.622E3,2.7E2,3.15E2,5.23E2,2.902E3,2.31E2,3.304E3,3.7E1,2.46E2,8.6E1,6E1,3.5E1,2.04E2,7.1E1,1.098E3,3.21E2,1.228E3,1.3E1,4.27E2,8E1,1.9E1,9E0],"tree_param":{"num_deleted":"0","num_feature":"26","num_nodes":"55","size_leaf_vector":"0"}},{"base_weights":[-2.004257E-1,-3.206209E-1,-6.953965E-2,-1.4975154E-1,-3.6949423E-1,1.0100374E-1,-2.5833595E-1,2.11491E-2,-3.8666883E-1,-3.7139332E-1,4.950495E-1,-2.3575406E-1,2.2321238E-1,-3.471879E-1,-1.713385E-1,1.2882139E-1,-1.4497131E-1,-4.343924E-1,3.2733224E-2,-3.2745284E-1,-4.113294E-1,-0E0,8.196721E-1,-4.180307E-1,-7.1572356E-2,3.0802718E-1,6.478426E-2,-4.1927055E-1,-2.2714578E-1,-3.5466462E-1,-1.0372862E-1,-3.203075E-2,2.0049436E-1,-3.0317384E-1,1.2489592E-1,-0E0,-4.6516117E-1,-1.8126889E-1,3.202847E-1,-4.319309E-1,-2.9096308E-1,-4.289555E-1,-1.4697237E-1,-4.7619048E-1,4.7619048E-1,-4.6320727E-1,-1.2477718E-1,7.97984E-2,-2.4868484E-1,2.0589371E-1,4.1401705E-1,1.2874101E-1,-1.04497954E-1,-4.313452E-1,4.9751244E-2,-1.1078087E-1,-4.7875524E-1,-2.2834985E-1,-5.346913E-1,1.0119409E-2,-2.0308974E-1],"categories":[],"categories_nodes":[],"categories_segments":[],"categories_sizes":[],"default_left":[1,1,1,1,1,1,1,1,1,1,1,1,1,1,1,1,1,1,1,1,1,1,0,1,1,1,1,1,1,1,1,0,0,0,0,0,0,0,0,0,0,0,0,0,0,0,0,0,0,0,0,0,0,0,0,0,0,0,0,0,0],"id":6,"left_children":[1,3,5,7,9,11,13,15,17,19,21,23,25,27,29,31,33,35,37,39,41,43,-1,45,47,49,51,53,55,57,59,-1,-1,-1,-1,-1,-1,-1,-1,-1,-1,-1,-1,-1,-1,-1,-1,-1,-1,-1,-1,-1,-1,-1,-1,-1,-1,-1,-1,-1,-1],"loss_changes":[1.9842859E2,5.445874E1,1.9508961E2,5.9849194E1,8.292847E0,1.307865E2,2.1707474E1,1.5208972E1,1.2774574E1,8.206177E0,1.6231129E0,2.4768353E1,3.098861E1,1.1606171E1,1.762297E1,6.16521E0,1.4317943E1,6.9808884E0,3.904709E0,8.578583E0,1.1822052E1,9.5238096E-1,0E0,4.667099E0,1.2157466E1,1.5783508E1,8.882946E0,5.367981E0,1.5130648E1,8.072891E0,1.2298219E1,0E0,0E0,0E0,0E0,0E0,0E0,0E0,0E0,0E0,0E0,0E0,0E0,0E0,0E0,0E0,0E0,0E0,0E0,0E0,0E0,0E0,0E0,0E0,0E0,0E0,0E0,0E0,0E0,0E0,0E0],"parents":[2147483647,0,0,1,1,2,2,3,3,4,4,5,5,6,6,7,7,8,8,9,9,10,10,11,11,12,12,13,13,14,14,15,15,16,16,17,17,18,18,19,19,20,20,21,21,23,23,24,24,25,25,26,26,27,27,28,28,29,29,30,30],"right_children":[2,4,6,8,10,12,14,16,18,20,22,24,26,28,30,32,34,36,38,40,42,44,-1,46,48,50,52,54,56,58,60,-1,-1,-1,-1,-1,-1,-1,-1,-1,-1,-1,-1,-1,-1,-1,-1,-1,-1,-1,-1,-1,-1,-1,-1,-1,-1,-1,-1,-1,-1],"split_conditions":[5E-1,3.55E1,3.75E1,6.5E-2,1.795E2,3.45E1,5.45E1,1.25E1,8.075E1,1.25E-1,2.5E0,2.85E1,3.55E1,1.75E1,6.225E1,5E-1,5.15E1,3.5E0,4.55E1,1.0775E2,5.45E1,3.5E0,4.0983605E-1,3.25E1,1.65E1,1.5E-2,1.185E2,1.615E2,6.75E1,6.45E1,1.2025E2,-1.6015375E-2,1.0024718E-1,-1.5158692E-1,6.244796E-2,-0E0,-2.3258059E-1,-9.063444E-2,1.6014235E-1,-2.1596545E-1,-1.4548154E-1,-2.1447775E-1,-7.348619E-2,-2.3809524E-1,2.3809524E-1,-2.3160364E-1,-6.238859E-2,3.98992E-2,-1.2434242E-1,1.02946855E-1,2.0700853E-1,6.4370506E-2,-5.2248977E-2,-2.156726E-1,2.4875622E-2,-5.5390436E-2,-2.3937762E-1,-1.14174925E-1,-2.6734564E-1,5.0597047E-3,-1.0154487E-1],"split_indices":[4,9,5,15,11,9,9,8,12,15,3,10,7,8,12,8,5,5,5,11,8,1,0,5,7,15,11,11,5,5,11,0,0,0,0,0,0,0,0,0,0,0,0,0,0,0,0,0,0,0,0,0,0,0,0,0,0,0,0,0,0],"split_type":[0,0,0,0,0,0,0,0,0,0,0,0,0,0,0,0,0,0,0,0,0,0,0,0,0,0,0,0,0,0,0,0,0,0,0,0,0,0,0,0,0,0,0,0,0,0,0,0,0,0,0,0,0,0,0,0,0,0,0,0,0],"sum_hessian":[1.2638E4,6.584E3,6.054E3,1.469E3,5.115E3,3.178E3,2.876E3,8.51E2,6.18E2,5.105E3,1E1,8.44E2,2.334E3,1.417E3,1.459E3,5.2E2,3.31E2,5.57E2,6.1E1,2.443E3,2.662E3,4E0,6E0,3.97E2,4.47E2,1.516E3,8.18E2,8.8E2,5.37E2,3.89E2,1.07E3,1.56E2,3.64E2,2.11E2,1.2E2,3.9E1,5.18E2,3.3E1,2.8E1,6.25E2,1.818E3,2.492E3,1.7E2,2E0,2E0,3.41E2,5.6E1,2.38E2,2.09E2,7.77E2,7.39E2,5.98E2,2.2E2,8.6E2,2E1,3.7E2,1.67E2,2.32E2,1.57E2,4.94E2,5.76E2],"tree_param":{"num_deleted":"0","num_feature":"26","num_nodes":"61","size_leaf_vector":"0"}},{"base_weights":[-8.410359E-2,-4.270256E-2,-1.6768847E-1,-1.0731663E-1,-1.4293939E-2,-1.8287978E-1,-8.951191E-2,-1.3630611E-2,-1.8855047E-1,-8.457123E-2,4.3555588E-2,-1.7097655E-1,-3.8485414E-1,-1.7267495E-1,1.1446013E-2,-6.571318E-2,1.4336918E-1,-2.7769208E-2,-2.4879141E-1,-1.8300077E-1,-1.8907716E-2,8.268712E-2,-1.7098077E-1,-1.4641495E-1,-2.4456912E-1,-4.8264182E-1,-9.280743E-2,-5.9549127E-2,-4.4164038E-1,2.834008E-1,-9.037746E-2,-9.056331E-3,-2.0080322E-1,2.7762353E-2,4.2194092E-1,-4.9808428E-1,1.0063737E-2,-7.278021E-2,-3.03691E-1,-2.0340532E-1,3.426791E-1,-1.6117729E-1,4.4345897E-2,1.4103262E-1,-5.7176366E-2,-6.832298E-1,-1.4811158E-1,2.0618556E-1,-1.5178274E-1,-4.1848844E-1,-1.9061857E-1,-2.3688664E-1,-7.106599E-1,4.950495E-1,-3.021148E-1,-1.7349063E-1,1.09769486E-1,-5.226481E-1,2.1978022E-1,4.5908183E-1,-4.1493777E-2,-2.8376845E-1,6.993007E-2],"categories":[],"categories_nodes":[],"categories_segments":[],"categories_sizes":[],"default_left":[1,1,1,1,1,1,1,1,1,1,1,1,1,1,1,1,1,1,1,1,1,1,1,1,1,1,1,1,1,1,1,0,0,0,0,0,0,0,0,0,0,0,0,0,0,0,0,0,0,0,0,0,0,0,0,0,0,0,0,0,0,0,0],"id":7,"left_children":[1,3,5,7,9,11,13,15,17,19,21,23,25,27,29,31,33,35,37,39,41,43,45,47,49,51,53,55,57,59,61,-1,-1,-1,-1,-1,-1,-1,-1,-1,-1,-1,-1,-1,-1,-1,-1,-1,-1,-1,-1,-1,-1,-1,-1,-1,-1,-1,-1,-1,-1,-1,-1],"loss_changes":[3.7190323E1,1.3160797E1,3.9682083E0,1.6533756E1,2.0519754E1,6.6021805E0,5.132679E0,8.321835E0,1.107526E1,1.4547482E1,2.3042557E1,4.701103E0,4.020857E0,9.540112E0,7.453496E0,5.7300534E0,7.63575E0,6.2553644E0,7.8164635E0,9.597488E0,1.249216E1,1.9131866E1,4.091607E0,3.9689713E0,5.9050674E0,5.6535435E0,5.125166E0,4.601273E0,5.4098263E0,4.648958E0,6.047305E0,0E0,0E0,0E0,0E0,0E0,0E0,0E0,0E0,0E0,0E0,0E0,0E0,0E0,0E0,0E0,0E0,0E0,0E0,0E0,0E0,0E0,0E0,0E0,0E0,0E0,0E0,0E0,0E0,0E0,0E0,0E0,0E0],"parents":[2147483647,0,0,1,1,2,2,3,3,4,4,5,5,6,6,7,7,8,8,9,9,10,10,11,11,12,12,13,13,14,14,15,15,16,16,17,17,18,18,19,19,20,20,21,21,22,22,23,23,24,24,25,25,26,26,27,27,28,28,29,29,30,30],"right_children":[2,4,6,8,10,12,14,16,18,20,22,24,26,28,30,32,34,36,38,40,42,44,46,48,50,52,54,56,58,60,62,-1,-1,-1,-1,-1,-1,-1,-1,-1,-1,-1,-1,-1,-1,-1,-1,-1,-1,-1,-1,-1,-1,-1,-1,-1,-1,-1,-1,-1,-1,-1,-1],"split_conditions":[5.5E0,3.55E1,1.065E2,5E-1,5E-1,9.85E1,5E-1,1.55E1,1.5E0,2.62275E1,3.1555E1,1.25E1,4.65E1,1.415E2,2.1145E1,2.35E1,2.665E1,5.35E1,2.3782501E1,8.95E1,1.5E0,1.95E1,3.18725E1,1.54275E1,4.15E1,2.85E1,5.15E1,5.25E1,5E-1,3.6E1,1.45E1,-4.5281653E-3,-1.0040161E-1,1.3881177E-2,2.1097046E-1,-2.4904214E-1,5.0318683E-3,-3.6390103E-2,-1.518455E-1,-1.0170266E-1,1.7133956E-1,-8.0588646E-2,2.2172948E-2,7.051631E-2,-2.8588183E-2,-3.416149E-1,-7.405579E-2,1.0309278E-1,-7.589137E-2,-2.0924422E-1,-9.530929E-2,-1.1844332E-1,-3.5532996E-1,2.4752475E-1,-1.510574E-1,-8.6745314E-2,5.4884743E-2,-2.6132405E-1,1.0989011E-1,2.2954091E-1,-2.0746889E-2,-1.4188422E-1,3.4965035E-2],"split_indices":[3,9,9,4,4,9,4,8,1,13,13,3,8,9,13,9,13,12,13,12,1,8,13,13,9,8,8,8,23,3,3,0,0,0,0,0,0,0,0,0,0,0,0,0,0,0,0,0,0,0,0,0,0,0,0,0,0,0,0,0,0,0,0],"split_type":[0,0,0,0,0,0,0,0,0,0,0,0,0,0,0,0,0,0,0,0,0,0,0,0,0,0,0,0,0,0,0,0,0,0,0,0,0,0,0,0,0,0,0,0,0,0,0,0,0,0,0,0,0,0,0,0,0,0,0,0,0,0,0],"sum_hessian":[1.0808E4,7.236E3,3.572E3,2.199E3,5.037E3,2.98E3,5.92E2,1.027E3,1.172E3,2.282E3,2.755E3,2.819E3,1.61E2,3.3E2,2.62E2,7.76E2,2.51E2,3.24E2,8.48E2,9.07E2,1.375E3,2.334E3,4.21E2,2.124E3,6.95E2,1.18E2,4.3E1,2.35E2,9.5E1,7.4E1,1.88E2,5.52E2,2.24E2,1.8E2,7.1E1,2.6E1,2.98E2,2.06E2,6.42E2,8.75E2,3.2E1,4.28E2,9.47E2,1.652E3,6.82E2,1.6E1,4.05E2,2.9E1,2.095E3,1.6E2,5.35E2,5.9E1,5.9E1,1E1,3.3E1,1.44E2,9.1E1,8.6E1,9E0,5E1,2.4E1,8.8E1,1E2],"tree_param":{"num_deleted":"0","num_feature":"26","num_nodes":"63","size_leaf_vector":"0"}},{"base_weights":[-3.907669E-2,2.5976501E-2,-8.4820755E-2,4.1834638E-2,-2.181674E-1,-7.5785875E-2,-2.200489E-1,6.098116E-2,-5.4004014E-2,-2.3780733E-1,7.3170733E-1,-2.426203E-2,-9.845505E-2,-3.773585E-1,-1.1550422E-1,3.3004597E-2,1.5444015E-1,-1.8899623E-1,2.1945868E-2,-4.8879838E-1,-1.7076845E-1,1.1110288E-2,-1.5219103E-1,-1.03346325E-1,1.6152717E-1,-5.5258465E-1,-2.5258324E-1,3.482587E-1,-1.657728E-1,3.6261875E-2,-8.6419755E-1,-0E0,2.1517344E-1,-5.513439E-2,-3.86681E-1,-2.1630615E-1,6.569552E-2,-0E0,-5.839416E-1,1.8372704E-1,-2.6070765E-1,6.338105E-2,-9.6529536E-2,-2.3149772E-1,7.284079E-2,-9.627985E-2,-4.091456E-1,5.847953E-1,-0E0,-6.724512E-1,-0E0,-3.576751E-1,4.9751244E-2,-1.6393442E-1,6.3829786E-1,-2.284409E-1,1.6611296E-1],"categories":[],"categories_nodes":[],"categories_segments":[],"categories_sizes":[],"default_left":[1,1,1,1,1,1,1,1,1,1,0,1,1,1,1,1,1,1,1,1,1,1,1,1,1,1,1,1,1,0,0,0,0,0,0,0,0,0,0,0,0,0,0,0,0,0,0,0,0,0,0,0,0,0,0,0,0],"id":8,"left_children":[1,3,5,7,9,11,13,15,17,19,-1,21,23,25,27,29,31,33,35,37,39,41,43,45,47,49,51,53,55,-1,-1,-1,-1,-1,-1,-1,-1,-1,-1,-1,-1,-1,-1,-1,-1,-1,-1,-1,-1,-1,-1,-1,-1,-1,-1,-1,-1],"loss_changes":[3.036786E1,1.6070484E1,7.0197983E0,7.2446375E0,4.226549E0,6.4425087E0,5.556507E0,8.430232E0,6.8122025E0,3.5066557E0,0E0,7.974729E0,4.890312E0,2.309597E0,5.0709753E0,6.613089E0,7.045061E0,5.856761E0,4.1254644E0,2.2834377E0,6.429682E0,7.563687E0,6.9616556E0,7.749897E0,4.0711546E0,3.7158623E0,3.0771227E0,3.4708042E0,4.331925E0,0E0,0E0,0E0,0E0,0E0,0E0,0E0,0E0,0E0,0E0,0E0,0E0,0E0,0E0,0E0,0E0,0E0,0E0,0E0,0E0,0E0,0E0,0E0,0E0,0E0,0E0,0E0,0E0],"parents":[2147483647,0,0,1,1,2,2,3,3,4,4,5,5,6,6,7,7,8,8,9,9,11,11,12,12,13,13,14,14,15,15,16,16,17,17,18,18,19,19,20,20,21,21,22,22,23,23,24,24,25,25,26,26,27,27,28,28],"right_children":[2,4,6,8,10,12,14,16,18,20,-1,22,24,26,28,30,32,34,36,38,40,42,44,46,48,50,52,54,56,-1,-1,-1,-1,-1,-1,-1,-1,-1,-1,-1,-1,-1,-1,-1,-1,-1,-1,-1,-1,-1,-1,-1,-1,-1,-1,-1,-1],"split_conditions":[1.45E1,1.165E2,5.3999996E0,4.25E1,9.05E1,1.95E1,4.45E1,7.45E-1,6.325E1,3.2E-1,3.6585367E-1,6.5E0,8.15E1,6.45E1,4.5E0,2.25E1,3E0,5.975E1,4.45E1,5.65E1,1.2E0,7.025E1,1.45E1,6.55E1,6.025E1,4.25E1,8.35E1,2.5E0,7.85E1,1.8130938E-2,-4.3209878E-1,-0E0,1.0758672E-1,-2.7567195E-2,-1.933405E-1,-1.08153075E-1,3.284776E-2,-0E0,-2.919708E-1,9.186352E-2,-1.3035382E-1,3.1690527E-2,-4.8264768E-2,-1.1574886E-1,3.6420394E-2,-4.8139926E-2,-2.045728E-1,2.9239765E-1,-0E0,-3.362256E-1,-0E0,-1.7883755E-1,2.4875622E-2,-8.196721E-2,3.1914893E-1,-1.1422045E-1,8.305648E-2],"split_indices":[17,10,15,7,12,17,7,15,12,15,0,3,17,12,3,3,1,12,7,12,15,12,3,17,12,17,10,3,12,0,0,0,0,0,0,0,0,0,0,0,0,0,0,0,0,0,0,0,0,0,0,0,0,0,0,0,0],"split_type":[0,0,0,0,0,0,0,0,0,0,0,0,0,0,0,0,0,0,0,0,0,0,0,0,0,0,0,0,0,0,0,0,0,0,0,0,0,0,0,0,0,0,0,0,0,0,0,0,0,0,0,0,0,0,0,0,0],"sum_hessian":[1.0185E4,4.196E3,5.989E3,3.944E3,2.52E2,5.621E3,3.68E2,3.296E3,6.48E2,2.48E2,4E0,1.731E3,3.89E3,1.43E2,2.25E2,2.545E3,7.51E2,2.38E2,4.1E2,4.9E1,1.99E2,1.35E3,3.81E2,3.822E3,6.8E1,5.6E1,8.7E1,2E1,2.05E2,2.537E3,8E0,2.12E2,5.39E2,1.45E2,9.3E1,6E1,3.5E2,8E0,4.1E1,3.8E1,1.61E2,9.15E2,4.35E2,2.85E2,9.6E1,3.739E3,8.3E1,1.7E1,5.1E1,4.6E1,1E1,6.7E1,2E1,6E0,1.4E1,1.75E2,3E1],"tree_param":{"num_deleted":"0","num_feature":"26","num_nodes":"57","size_leaf_vector":"0"}},{"base_weights":[-1.9704236E-2,-3.9047506E-2,1.9154319E-1,-2.9367218E-2,-2.1576586E-1,4.3454245E-1,-2.6471612E-1,-2.3374219E-1,-1.8498011E-2,4.950495E-1,-2.3357345E-1,5.373657E-1,1.397624E-1,2.4067389E-2,-3.8706517E-1,-4.0489244E-1,-2.0502307E-2,-2.4174154E-2,2.1343051E-1,-0E0,8.196721E-1,-3.268719E-1,-1.0251153E-1,7.146427E-1,3.5482258E-1,3.0061892E-1,-4.3189368E-1,2.1015762E-1,-3.448276E-1,-4.568818E-1,-0E0,-4.7419804E-1,2.2624435E-1,1.8158236E-1,-1.6088061E-1,-7.590594E-3,-9.943676E-2,4.293972E-1,-1.4064698E-1,-4.7619048E-1,4.7619048E-1,-4.3326345E-1,-1.9150707E-1,-6.312292E-1,-0E0,7.394187E-1,-2.4390244E-1,2.5486252E-1,6.262231E-1,4.1543028E-1,-5.785124E-1,-5.5776894E-1,-0E0,-0E0,3.858521E-1,-0E0,-5.235602E-1,-5.418719E-1,-6.042296E-2,-1.7316018E-1,8.196721E-1],"categories":[],"categories_nodes":[],"categories_segments":[],"categories_sizes":[],"default_left":[1,1,1,1,1,1,1,1,1,1,1,1,1,1,1,1,1,1,1,1,0,1,1,1,1,1,1,1,1,1,1,0,0,0,0,0,0,0,0,0,0,0,0,0,0,0,0,0,0,0,0,0,0,0,0,0,0,0,0,0,0],"id":9,"left_children":[1,3,5,7,9,11,13,15,17,19,21,23,25,27,29,31,33,35,37,39,-1,41,43,45,47,49,51,53,55,57,59,-1,-1,-1,-1,-1,-1,-1,-1,-1,-1,-1,-1,-1,-1,-1,-1,-1,-1,-1,-1,-1,-1,-1,-1,-1,-1,-1,-1,-1,-1],"loss_changes":[4.0494247E1,1.5350714E1,9.221507E1,1.8960384E1,5.675255E0,1.5776848E1,1.0507856E1,1.5343721E1,1.0628738E1,1.6231129E0,5.1688557E0,1.1852692E1,1.3040413E1,5.5772047E0,5.972393E0,1.0629749E1,5.5168753E0,9.909201E0,1.4984472E1,9.5238096E-1,0E0,3.1560116E0,9.943125E0,5.265709E0,4.5315113E0,1.1276614E1,2.194147E0,2.1083338E0,2.1321535E0,5.294441E0,4.7910013E0,0E0,0E0,0E0,0E0,0E0,0E0,0E0,0E0,0E0,0E0,0E0,0E0,0E0,0E0,0E0,0E0,0E0,0E0,0E0,0E0,0E0,0E0,0E0,0E0,0E0,0E0,0E0,0E0,0E0,0E0],"parents":[2147483647,0,0,1,1,2,2,3,3,4,4,5,5,6,6,7,7,8,8,9,9,10,10,11,11,12,12,13,13,14,14,15,15,16,16,17,17,18,18,19,19,21,21,22,22,23,23,24,24,25,25,26,26,27,27,28,28,29,29,30,30],"right_children":[2,4,6,8,10,12,14,16,18,20,22,24,26,28,30,32,34,36,38,40,-1,42,44,46,48,50,52,54,56,58,60,-1,-1,-1,-1,-1,-1,-1,-1,-1,-1,-1,-1,-1,-1,-1,-1,-1,-1,-1,-1,-1,-1,-1,-1,-1,-1,-1,-1,-1,-1],"split_conditions":[3.015E2,1.5E0,6.5E0,1.5E0,1.5E0,3.5E0,9.5E0,1.75E1,3.75E1,5.8E1,2.25E1,2.25E-1,5E-1,5E-1,3.25E1,7.75E1,5.35E1,2.95E1,3.65E1,1.265E2,4.0983605E-1,1.85E1,8.5E0,5.85E1,1.3175E2,3.625E0,1.2425E3,1.1375E2,3.85E1,8.14E2,1.31E2,-2.3709902E-1,1.1312217E-1,9.079118E-2,-8.0440305E-2,-3.795297E-3,-4.971838E-2,2.146986E-1,-7.032349E-2,-2.3809524E-1,2.3809524E-1,-2.1663173E-1,-9.5753536E-2,-3.156146E-1,-0E0,3.6970934E-1,-1.2195122E-1,1.2743126E-1,3.1311154E-1,2.0771514E-1,-2.892562E-1,-2.7888447E-1,-0E0,-0E0,1.9292605E-1,-0E0,-2.617801E-1,-2.7093595E-1,-3.021148E-2,-8.658009E-2,4.0983605E-1],"split_indices":[2,19,18,2,2,18,18,8,18,9,18,15,19,19,8,9,9,8,2,11,0,8,2,8,11,15,2,11,9,2,11,0,0,0,0,0,0,0,0,0,0,0,0,0,0,0,0,0,0,0,0,0,0,0,0,0,0,0,0,0,0],"split_type":[0,0,0,0,0,0,0,0,0,0,0,0,0,0,0,0,0,0,0,0,0,0,0,0,0,0,0,0,0,0,0,0,0,0,0,0,0,0,0,0,0,0,0,0,0,0,0,0,0,0,0,0,0,0,0,0,0,0,0,0,0],"sum_hessian":[9.947E3,9.117E3,8.3E2,8.649E3,4.68E2,5.43E2,2.87E2,4.32E2,8.217E3,1E1,4.58E2,4E2,1.43E2,8.3E1,2.04E2,2.37E2,1.95E2,8.025E3,1.92E2,4E0,6E0,2.63E2,1.95E2,2E2,2E2,1.13E2,3E1,5.7E1,2.6E1,1.75E2,2.9E1,2.15E2,2.2E1,7.7E1,1.18E2,6.587E3,1.438E3,1.21E2,7.1E1,2E0,2E0,1.43E2,1.2E2,3E1,1.65E2,1.96E2,4E0,1.49E2,5.1E1,1.01E2,1.2E1,2.5E1,5E0,2.6E1,3.1E1,7E0,1.9E1,1.42E2,3.3E1,2.3E1,6E0],"tree_param":{"num_deleted":"0","num_feature":"26","num_nodes":"61","size_leaf_vector":"0"}},{"base_weights":[-9.346056E-2,-2.2500853E-1,-3.6804415E-2,-3.096878E-1,-8.758414E-2,4.13102E-2,-1.1528916E-1,-3.3748844E-1,1.9723866E-2,1.0070869E-1,-1.4091805E-1,-6.8614E-2,5.8912434E-2,-1.5477538E-1,-4.5484558E-2,-3.4713393E-1,2.4911033E-1,1.3071896E-1,-2.2172949E-1,-1.6877638E-1,2.0294267E-1,1.0920437E-1,-1.5980469E-1,-3.996194E-1,1.4811158E-2,1.09387554E-1,8.0044335E-3,-2.3747301E-1,-1.0571106E-1,-1.9670388E-1,-2.0423794E-2,-3.5161665E-1,8.196721E-1,-6.2111802E-2,7.4380165E-1,-6.1728394E-1,2.0181635E-1,-3.9370078E-1,5.633803E-1,2.0746888E-1,-3.821656E-1,3.329634E-2,3.3613446E-1,3.2258064E-1,-9.966777E-2,1.22199595E-1,-1.7720924E-1,-4.9321824E-1,-4.1493777E-2,-5.4821026E-2,2.5236592E-1,1.4339392E-1,-2.8653296E-2,1.8169288E-2,-5.338078E-1,1.3140605E-2,-2.624052E-1,-1.3989756E-1,1.172871E-1,-4.3010753E-1,-6.4987816E-2,-7.296774E-2,1.3082857E-1],"categories":[],"categories_nodes":[],"categories_segments":[],"categories_sizes":[],"default_left":[1,1,1,1,1,1,1,1,1,1,1,1,1,1,1,1,1,1,1,1,1,1,1,1,1,1,1,1,1,1,1,0,0,0,0,0,0,0,0,0,0,0,0,0,0,0,0,0,0,0,0,0,0,0,0,0,0,0,0,0,0,0,0],"id":10,"left_children":[1,3,5,7,9,11,13,15,17,19,21,23,25,27,29,31,33,35,37,39,41,43,45,47,49,51,53,55,57,59,61,-1,-1,-1,-1,-1,-1,-1,-1,-1,-1,-1,-1,-1,-1,-1,-1,-1,-1,-1,-1,-1,-1,-1,-1,-1,-1,-1,-1,-1,-1,-1,-1],"loss_changes":[7.964173E1,3.709558E1,4.6049976E1,1.8534317E1,1.2424903E1,7.250684E0,1.0127243E1,1.0501053E1,3.9881887E0,7.423888E0,4.611452E0,1.4471393E1,8.21338E0,9.327801E0,4.948172E0,9.023209E0,5.012554E0,5.292681E0,5.941738E0,5.8910093E0,4.083023E0,3.08296E0,4.4799194E0,2.986208E0,6.899873E0,7.710943E0,8.42997E0,5.7487755E0,1.1490799E1,5.284869E0,9.282078E0,0E0,0E0,0E0,0E0,0E0,0E0,0E0,0E0,0E0,0E0,0E0,0E0,0E0,0E0,0E0,0E0,0E0,0E0,0E0,0E0,0E0,0E0,0E0,0E0,0E0,0E0,0E0,0E0,0E0,0E0,0E0,0E0],"parents":[2147483647,0,0,1,1,2,2,3,3,4,4,5,5,6,6,7,7,8,8,9,9,10,10,11,11,12,12,13,13,14,14,15,15,16,16,17,17,18,18,19,19,20,20,21,21,22,22,23,23,24,24,25,25,26,26,27,27,28,28,29,29,30,30],"right_children":[2,4,6,8,10,12,14,16,18,20,22,24,26,28,30,32,34,36,38,40,42,44,46,48,50,52,54,56,58,60,62,-1,-1,-1,-1,-1,-1,-1,-1,-1,-1,-1,-1,-1,-1,-1,-1,-1,-1,-1,-1,-1,-1,-1,-1,-1,-1,-1,-1,-1,-1,-1,-1],"split_conditions":[2.5E0,3.5E-2,3.55E1,3.95E1,2.05E1,8.5E0,2.45E1,8.9E1,6.75E1,1.95E1,4.5E0,5.5E0,2.85E1,6.425E1,4.35E1,1.02E2,1.5E0,4E0,7.25E1,2.5E0,5.5E0,2.35E1,1.14999995E-1,2.05E1,7.4E-1,5E-1,5.85E1,2.5E0,2.73E0,2.4999999E-2,1.35E1,-1.7580833E-1,4.0983605E-1,-3.1055901E-2,3.7190083E-1,-3.0864197E-1,1.00908175E-1,-1.9685039E-1,2.8169015E-1,1.0373444E-1,-1.910828E-1,1.664817E-2,1.6806723E-1,1.6129032E-1,-4.9833886E-2,6.1099797E-2,-8.860462E-2,-2.4660912E-1,-2.0746889E-2,-2.7410513E-2,1.2618296E-1,7.169696E-2,-1.4326648E-2,9.084644E-3,-2.669039E-1,6.5703024E-3,-1.312026E-1,-6.994878E-2,5.864355E-2,-2.1505377E-1,-3.2493908E-2,-3.648387E-2,6.541429E-2],"split_indices":[18,15,5,17,5,7,17,7,12,7,17,5,7,12,5,12,18,7,17,7,5,7,15,17,15,19,18,17,15,15,18,0,0,0,0,0,0,0,0,0,0,0,0,0,0,0,0,0,0,0,0,0,0,0,0,0,0,0,0,0,0,0,0],"split_type":[0,0,0,0,0,0,0,0,0,0,0,0,0,0,0,0,0,0,0,0,0,0,0,0,0,0,0,0,0,0,0,0,0,0,0,0,0,0,0,0,0,0,0,0,0,0,0,0,0,0,0,0,0,0,0,0,0,0,0,0,0,0,0],"sum_hessian":[1.0721E4,3.222E3,7.499E3,1.989E3,1.233E3,3.752E3,3.747E3,1.837E3,1.52E2,2.68E2,9.65E2,5.1E2,3.242E3,2.384E3,1.363E3,1.809E3,2.8E1,1.07E2,4.5E1,7.1E1,1.97E2,6.4E1,9.01E2,1.05E2,4.05E2,1.618E3,1.624E3,8.8E2,1.504E3,1.88E2,1.175E3,1.803E3,6E0,1.6E1,1.2E1,8E0,9.9E1,3.8E1,7E0,2.4E1,4.7E1,9E1,1.07E2,3.4E1,3E1,4.9E1,8.52E2,8.1E1,2.4E1,3.1E2,9.5E1,1.304E3,3.14E2,1.596E3,2.8E1,7.6E1,8.04E2,1.308E3,1.96E2,6.5E1,1.23E2,8.77E2,2.98E2],"tree_param":{"num_deleted":"0","num_feature":"26","num_nodes":"63","size_leaf_vector":"0"}},{"base_weights":[-4.038898E-3,-1.4264858E-2,1.2882447E-1,-6.8127826E-2,3.4114E-3,1.5393995E-1,-4.4280443E-1,-1.0207109E-1,3.4792162E-2,5.5250626E-2,-3.207136E-2,2.1675454E-1,-6.2456626E-2,-5.5776894E-1,4.7619048E-1,7.921999E-2,-1.2227993E-1,1.24204785E-1,-9.717723E-2,1.04670316E-1,-5.0627086E-2,-2.5410026E-2,-2.9442692E-1,8.5178874E-2,2.8265396E-1,1.8302828E-1,-2.4970274E-1,-0E0,-7.329843E-1,1.3452914E-1,-8.6419755E-1,-2.7506655E-1,-7.7761814E-2,6.340917E-2,3.7037036E-1,6.717045E-2,-3.0895984E-1,-7.0040273E-3,1.540691E-1,-1.3109596E-1,1.009761E-1,-4.034808E-2,5.9120152E-2,-3.903559E-1,6.1728394E-1,1.16890706E-1,-7.8431374E-1,6.10998E-1,2.2291884E-1,3.991131E-1,-3.97351E-1,9.966777E-2,-4.621072E-1,4.7619048E-1,-2.4390244E-1,-0E0,-8.187134E-1],"categories":[],"categories_nodes":[],"categories_segments":[],"categories_sizes":[],"default_left":[1,1,1,1,1,1,1,1,1,1,1,1,1,1,0,1,1,1,1,1,1,1,1,1,1,1,1,1,1,0,0,0,0,0,0,0,0,0,0,0,0,0,0,0,0,0,0,0,0,0,0,0,0,0,0,0,0],"id":11,"left_children":[1,3,5,7,9,11,13,15,17,19,21,23,25,27,-1,29,31,33,35,37,39,41,43,45,47,49,51,53,55,-1,-1,-1,-1,-1,-1,-1,-1,-1,-1,-1,-1,-1,-1,-1,-1,-1,-1,-1,-1,-1,-1,-1,-1,-1,-1,-1,-1],"loss_changes":[1.3004938E1,8.60799E0,9.525034E0,7.86185E0,1.2424767E1,9.073928E0,2.971302E0,6.217697E0,6.472067E0,1.444955E1,6.6544123E0,4.070057E0,6.694959E0,2.4530149E0,0E0,7.8446345E0,9.991209E0,4.5040784E0,7.765437E0,1.05299225E1,1.0633889E1,4.901135E0,8.114567E0,4.197386E0,5.7446175E0,7.5548296E0,6.6079264E0,7.200929E-1,1.2002087E0,0E0,0E0,0E0,0E0,0E0,0E0,0E0,0E0,0E0,0E0,0E0,0E0,0E0,0E0,0E0,0E0,0E0,0E0,0E0,0E0,0E0,0E0,0E0,0E0,0E0,0E0,0E0,0E0],"parents":[2147483647,0,0,1,1,2,2,3,3,4,4,5,5,6,6,7,7,8,8,9,9,10,10,11,11,12,12,13,13,15,15,16,16,17,17,18,18,19,19,20,20,21,21,22,22,23,23,24,24,25,25,26,26,27,27,28,28],"right_children":[2,4,6,8,10,12,14,16,18,20,22,24,26,28,-1,30,32,34,36,38,40,42,44,46,48,50,52,54,56,-1,-1,-1,-1,-1,-1,-1,-1,-1,-1,-1,-1,-1,-1,-1,-1,-1,-1,-1,-1,-1,-1,-1,-1,-1,-1,-1,-1],"split_conditions":[6.95E1,3.45E1,8.05E1,1.2475E2,2.65E1,3.15E1,1.47E2,1.5E0,1.65E1,6.5E0,2.75E1,1.165E2,7.35E1,1E2,2.3809524E-1,1.175E2,1.25E1,1.25E1,7.975E1,3.5E0,8.75E1,1.3725E2,3.34E2,1.55E1,3.45E1,5E-1,5.75E1,7.85E1,8.5E0,6.726457E-2,-4.3209878E-1,-1.3753328E-1,-3.8880907E-2,3.1704586E-2,1.8518518E-1,3.3585224E-2,-1.5447992E-1,-3.5020136E-3,7.703455E-2,-6.554798E-2,5.048805E-2,-2.017404E-2,2.9560076E-2,-1.9517796E-1,3.0864197E-1,5.8445353E-2,-3.9215687E-1,3.05499E-1,1.1145942E-1,1.9955654E-1,-1.986755E-1,4.9833886E-2,-2.310536E-1,2.3809524E-1,-1.2195122E-1,-0E0,-4.093567E-1],"split_indices":[5,9,7,11,5,17,11,5,7,3,3,11,5,10,0,11,5,7,12,1,9,11,10,3,10,19,12,5,17,0,0,0,0,0,0,0,0,0,0,0,0,0,0,0,0,0,0,0,0,0,0,0,0,0,0,0,0],"split_type":[0,0,0,0,0,0,0,0,0,0,0,0,0,0,0,0,0,0,0,0,0,0,0,0,0,0,0,0,0,0,0,0,0,0,0,0,0,0,0,0,0,0,0,0,0,0,0,0,0,0,0,0,0,0,0,0,0],"sum_hessian":[9.656E3,8.973E3,6.83E2,2.231E3,6.742E3,6.56E2,2.7E1,1.685E3,5.46E2,2.751E3,3.991E3,5.12E2,1.44E2,2.5E1,2E0,1.64E2,1.521E3,3.3E2,2.16E2,1.882E3,8.69E2,3.896E3,9.5E1,1.76E2,3.36E2,6E1,8.4E1,6E0,1.9E1,1.56E2,8E0,3.38E2,1.183E3,2.68E2,6.2E1,1.19E2,9.7E1,5.71E2,1.311E3,5.72E2,2.97E2,3.321E3,5.75E2,8.7E1,8E0,1.71E2,5E0,4.9E1,2.87E2,4.5E1,1.5E1,3E1,5.4E1,2E0,4E0,2E0,1.7E1],"tree_param":{"num_deleted":"0","num_feature":"26","num_nodes":"57","size_leaf_vector":"0"}},{"base_weights":[-1.3569364E-2,3.9501038E-1,-1.5719179E-2,6.642066E-1,-0E0,4.6426025E-3,-5.034824E-2,7.692308E-1,-0E0,-1.863354E-1,7.8431374E-1,-5.5191223E-2,2.5383536E-2,-6.0860198E-2,1.9844082E-1,8.376963E-1,-0E0,6.451613E-1,-4.7619048E-1,6.451613E-1,-4.5801526E-1,-1.6332908E-1,3.4684848E-2,3.2999467E-2,-1.4354067E-1,-5.2677523E-2,-2.9438E-1,1.15606934E-1,6.467662E-1,4.7619048E-1,-7.207207E-1,-3.0717677E-2,-2.9760185E-1,3.2630864E-1,-2.6121028E-2,6.3829786E-1,3.0775687E-2,-4.1039672E-1,1.7376194E-2,-5.560424E-2,6.10687E-1,-4.5007032E-1,-0E0,1.8733273E-1,-6.593407E-1,9.2715234E-1,-0E0],"categories":[],"categories_nodes":[],"categories_segments":[],"categories_sizes":[],"default_left":[1,1,1,1,1,1,1,1,1,1,0,1,1,1,1,0,0,0,0,0,1,1,1,1,1,1,1,1,1,0,0,0,0,0,0,0,0,0,0,0,0,0,0,0,0,0,0],"id":12,"left_children":[1,3,5,7,9,11,13,15,17,19,-1,21,23,25,27,-1,-1,-1,-1,-1,29,31,33,35,37,39,41,43,45,-1,-1,-1,-1,-1,-1,-1,-1,-1,-1,-1,-1,-1,-1,-1,-1,-1,-1],"loss_changes":[8.101207E0,4.4505224E0,6.8190794E0,1.1212034E0,3.6962612E0,7.454984E0,9.21344E0,3.2621765E-1,1.766513E0,3.4794078E0,0E0,1.509745E1,5.667799E0,6.2133265E0,4.4701138E0,0E0,0E0,0E0,0E0,0E0,3.4938645E0,1.2208042E1,1.5127131E1,5.1211476E0,8.471056E0,5.8981104E0,4.68771E0,6.271535E0,4.572172E0,0E0,0E0,0E0,0E0,0E0,0E0,0E0,0E0,0E0,0E0,0E0,0E0,0E0,0E0,0E0,0E0,0E0,0E0],"parents":[2147483647,0,0,1,1,2,2,3,3,4,4,5,5,6,6,7,7,8,8,9,9,11,11,12,12,13,13,14,14,20,20,21,21,22,22,23,23,24,24,25,25,26,26,27,27,28,28],"right_children":[2,4,6,8,10,12,14,16,18,20,-1,22,24,26,28,-1,-1,-1,-1,-1,30,32,34,36,38,40,42,44,46,-1,-1,-1,-1,-1,-1,-1,-1,-1,-1,-1,-1,-1,-1,-1,-1,-1,-1],"split_conditions":[1.52075E1,1.55E1,1.2025E2,1.095E2,1.5155E1,2.15125E1,4.1195E1,1.51825E1,5E-1,5.05E1,3.9215687E-1,5E-1,4.0095E1,3.8377502E1,1.115E2,4.1884816E-1,-0E0,3.2258064E-1,-2.3809524E-1,3.2258064E-1,2.85E1,5.05E1,1.6247501E1,2.1567501E1,5.15E1,2.725E2,4.0215E1,9.75E1,1.405E2,2.3809524E-1,-3.6036035E-1,-1.5358838E-2,-1.4880092E-1,1.6315432E-1,-1.3060514E-2,3.1914893E-1,1.5387843E-2,-2.0519836E-1,8.688097E-3,-2.780212E-2,3.053435E-1,-2.2503516E-1,-0E0,9.366637E-2,-3.2967034E-1,4.6357617E-1,-0E0],"split_indices":[20,17,11,11,20,20,20,20,4,12,0,4,20,20,10,0,0,0,0,0,9,10,20,20,10,10,20,10,11,0,0,0,0,0,0,0,0,0,0,0,0,0,0,0,0,0,0],"split_type":[0,0,0,0,0,0,0,0,0,0,0,0,0,0,0,0,0,0,0,0,0,0,0,0,0,0,0,0,0,0,0,0,0,0,0,0,0,0,0,0,0,0,0,0,0,0,0],"sum_hessian":[9.654E3,4.8E1,9.606E3,2.7E1,2.1E1,6.031E3,3.575E3,2.2E1,5E0,1.6E1,5E0,1.54E3,4.491E3,3.434E3,1.41E2,1.9E1,3E0,3E0,2E0,3E0,1.3E1,7.04E2,8.36E2,4.303E3,1.88E2,3.322E3,1.12E2,1.21E2,2E1,2E0,1.1E1,3.58E2,3.46E2,1.47E2,6.89E2,1.4E1,4.289E3,7.3E1,1.15E2,3.309E3,1.3E1,7.1E1,4.1E1,1.12E2,9E0,1.5E1,5E0],"tree_param":{"num_deleted":"0","num_feature":"26","num_nodes":"47","size_leaf_vector":"0"}},{"base_weights":[2.1166038E-3,2.8175458E-2,-1.8617253E-1,-2.5921717E-2,1.1093888E-1,-2.8864908E-1,2.1327646E-2,9.12235E-2,-1.03638954E-1,-1.5327348E-2,2.01552E-1,-2.6862028E-1,-7.165109E-1,-2.3509656E-1,1.4447482E-1,5.246782E-2,2.66779E-1,1.1963406E-1,-1.15006424E-1,1.5483002E-1,-6.3367814E-2,2.1202919E-1,-2.3201856E-1,-2.9174608E-1,-0E0,-0E0,-8.118081E-1,4.5801526E-1,-3.2987747E-1,2.4245423E-1,-2.0332718E-1,8.197276E-2,-2.0846106E-1,-0E0,3.3672395E-1,7.94702E-1,3.1471282E-2,-1.23699546E-1,1.7262639E-1,8.264463E-2,5.5684453E-1,-1.4354067E-1,3.8535647E-2,1.3679296E-1,2.8344315E-1,-7.1823204E-1,7.968128E-2,-2.4139898E-1,-4.5483664E-1,3.9145908E-1,-3.6900368E-1,4.7619048E-1,-6.451613E-1,-8.7649405E-1,-0E0,-0E0,8.196721E-1,-4.506699E-1,4.1493777E-2,-2.2624435E-1,3.053859E-1,7.8431374E-1,-3.2586557E-1],"categories":[],"categories_nodes":[],"categories_segments":[],"categories_sizes":[],"default_left":[1,1,1,1,1,1,1,1,1,1,1,1,1,1,1,1,1,1,1,1,1,1,1,1,1,1,1,1,1,1,1,0,0,0,0,0,0,0,0,0,0,0,0,0,0,0,0,0,0,0,0,0,0,0,0,0,0,0,0,0,0,0,0],"id":13,"left_children":[1,3,5,7,9,11,13,15,17,19,21,23,25,27,29,31,33,35,37,39,41,43,45,47,49,51,53,55,57,59,61,-1,-1,-1,-1,-1,-1,-1,-1,-1,-1,-1,-1,-1,-1,-1,-1,-1,-1,-1,-1,-1,-1,-1,-1,-1,-1,-1,-1,-1,-1,-1,-1],"loss_changes":[4.6205475E1,3.726946E1,2.4595966E1,4.5671844E1,3.782981E1,5.5864716E0,1.1757651E1,1.3253559E1,7.661915E0,1.1109318E1,8.707176E0,4.870655E0,1.3800278E0,7.7110996E0,8.771288E0,1.249415E1,6.981497E0,7.6285295E0,7.149685E0,7.977626E0,8.872668E0,9.661392E0,7.176193E0,4.8936005E0,7.996087E0,1.766513E0,1.42309E0,1.3502688E0,5.1705704E0,6.0471888E0,6.114505E0,0E0,0E0,0E0,0E0,0E0,0E0,0E0,0E0,0E0,0E0,0E0,0E0,0E0,0E0,0E0,0E0,0E0,0E0,0E0,0E0,0E0,0E0,0E0,0E0,0E0,0E0,0E0,0E0,0E0,0E0,0E0,0E0],"parents":[2147483647,0,0,1,1,2,2,3,3,4,4,5,5,6,6,7,7,8,8,9,9,10,10,11,11,12,12,13,13,14,14,15,15,16,16,17,17,18,18,19,19,20,20,21,21,22,22,23,23,24,24,25,25,26,26,27,27,28,28,29,29,30,30],"right_children":[2,4,6,8,10,12,14,16,18,20,22,24,26,28,30,32,34,36,38,40,42,44,46,48,50,52,54,56,58,60,62,-1,-1,-1,-1,-1,-1,-1,-1,-1,-1,-1,-1,-1,-1,-1,-1,-1,-1,-1,-1,-1,-1,-1,-1,-1,-1,-1,-1,-1,-1,-1,-1],"split_conditions":[3.155E2,2.95E1,4.5E0,2.65E1,2.95E1,5E-1,5.65E1,2.42275E1,5E-1,2.75E1,1.875E2,8.95E1,5E-1,2.05E1,1.65E1,2.45E1,3.5E0,1.5E0,4.3190002E1,3.15E1,4.5E0,5E-1,2.115E2,6.75E1,7.315E2,1.0705E3,1.85E3,7.13E2,5E-1,1.85E1,3.93E2,4.098638E-2,-1.0423053E-1,-0E0,1.6836198E-1,3.97351E-1,1.5735641E-2,-6.1849773E-2,8.6313196E-2,4.1322313E-2,2.7842227E-1,-7.177033E-2,1.9267824E-2,6.839648E-2,1.4172158E-1,-3.5911602E-1,3.984064E-2,-1.2069949E-1,-2.2741832E-1,1.9572954E-1,-1.8450184E-1,2.3809524E-1,-3.2258064E-1,-4.3824703E-1,-0E0,-0E0,4.0983605E-1,-2.2533496E-1,2.0746889E-2,-1.1312217E-1,1.5269294E-1,3.9215687E-1,-1.6293278E-1],"split_indices":[2,2,3,5,5,14,10,20,2,10,10,10,7,10,3,2,2,3,20,7,3,16,10,5,2,2,2,2,16,5,2,0,0,0,0,0,0,0,0,0,0,0,0,0,0,0,0,0,0,0,0,0,0,0,0,0,0,0,0,0,0,0,0],"split_type":[0,0,0,0,0,0,0,0,0,0,0,0,0,0,0,0,0,0,0,0,0,0,0,0,0,0,0,0,0,0,0,0,0,0,0,0,0,0,0,0,0,0,0,0,0,0,0,0,0,0,0,0,0,0,0,0,0,0,0,0,0,0,0],"sum_hessian":[9.449E3,8.305E3,1.144E3,5.015E3,3.29E3,7.69E2,3.75E2,1.995E3,3.02E3,1.37E3,1.92E3,7.37E2,3.2E1,1.19E2,2.56E2,1.639E3,3.56E2,1.42E2,2.878E3,2.97E2,1.073E3,1.877E3,4.3E1,6.82E2,5.5E1,5E0,2.7E1,1.3E1,1.06E2,2.02E2,5.4E1,1.476E3,1.63E2,7.1E1,2.85E2,1.5E1,1.27E2,2.797E3,8.1E1,2.54E2,4.3E1,6.06E2,4.67E2,9.21E2,9.56E2,1.8E1,2.5E1,5.26E2,1.56E2,2.8E1,2.7E1,2E0,3E0,2.5E1,2E0,7E0,6E0,8.2E1,2.4E1,2.2E1,1.8E2,5E0,4.9E1],"tree_param":{"num_deleted":"0","num_feature":"26","num_nodes":"63","size_leaf_vector":"0"}},{"base_weights":[-8.604115E-3,2.3766551E-2,-5.6310732E-2,4.013566E-2,-1.0764965E-1,-1.0638934E-1,-1.6782435E-2,3.6303565E-2,2.6217228E-1,-1.2770963E-1,4.9723756E-1,-4.621072E-1,-9.387931E-2,-2.1564858E-2,7.4380165E-1,3.8957577E-2,-4.2145595E-1,-2.4875621E-1,4.4925123E-1,-1.4209895E-1,5.405405E-1,6.832298E-1,-4.7619048E-1,1.2345679E-1,-5.856833E-1,8.385744E-2,-1.11781046E-1,-2.4975026E-1,-9.837194E-3,8.910891E-1,-0E0,8.944544E-2,2.4638934E-2,-6.6225165E-1,-0E0,-4.6783626E-1,6.451613E-1,5.938242E-1,5.5248618E-2,-1.5248658E-1,5.633803E-1,-0E0,8.196721E-1,7.8014183E-1,-0E0,7.3170733E-1,-2.4390244E-1,-9.3167704E-1,-3.654485E-1,1.3523667E-1,-4.950495E-1,-1.2481278E-1,1.2145749E-1,3.7037036E-1,-3.1487513E-1,4.2296073E-1,-1.7499125E-2],"categories":[],"categories_nodes":[],"categories_segments":[],"categories_sizes":[],"default_left":[1,1,1,1,1,1,1,1,1,1,1,1,1,1,1,1,1,1,1,1,1,1,0,1,1,1,1,1,1,0,0,0,0,0,0,0,0,0,0,0,0,0,0,0,0,0,0,0,0,0,0,0,0,0,0,0,0],"id":14,"left_children":[1,3,5,7,9,11,13,15,17,19,21,23,25,27,29,31,33,35,37,39,41,43,-1,45,47,49,51,53,55,-1,-1,-1,-1,-1,-1,-1,-1,-1,-1,-1,-1,-1,-1,-1,-1,-1,-1,-1,-1,-1,-1,-1,-1,-1,-1,-1,-1],"loss_changes":[1.4570825E1,1.1971058E1,7.434663E0,3.9405203E0,7.0761933E0,6.8850346E0,7.082031E0,5.575921E0,7.8679466E0,5.331525E0,3.51658E0,4.384226E0,5.180505E0,5.448517E0,1.3255873E0,3.4114366E0,1.9865012E0,3.7892313E0,2.7710705E0,3.8781261E0,8.551173E-1,1.0660324E0,0E0,2.3155677E0,2.1816397E0,3.9032183E0,4.491482E0,3.9987345E0,6.3371754E0,0E0,0E0,0E0,0E0,0E0,0E0,0E0,0E0,0E0,0E0,0E0,0E0,0E0,0E0,0E0,0E0,0E0,0E0,0E0,0E0,0E0,0E0,0E0,0E0,0E0,0E0,0E0,0E0],"parents":[2147483647,0,0,1,1,2,2,3,3,4,4,5,5,6,6,7,7,8,8,9,9,10,10,11,11,12,12,13,13,14,14,15,15,16,16,17,17,18,18,19,19,20,20,21,21,23,23,24,24,25,25,26,26,27,27,28,28],"right_children":[2,4,6,8,10,12,14,16,18,20,22,24,26,28,30,32,34,36,38,40,42,44,-1,46,48,50,52,54,56,-1,-1,-1,-1,-1,-1,-1,-1,-1,-1,-1,-1,-1,-1,-1,-1,-1,-1,-1,-1,-1,-1,-1,-1,-1,-1,-1,-1],"split_conditions":[3.75E-1,8.85E1,4.5E0,7.05E1,1.055E2,4.25E-1,7.15E1,6.75E1,1.085E2,3.25E-1,1.305E2,1.5E0,5E-1,9.25E1,7.325E1,1.5E0,7E0,1.09E2,8.35E1,1.635E2,1.185E2,3.8E1,-2.3809524E-1,5.55E1,4.35E1,1.455E2,1.115E2,2.45E1,9.475E1,4.4554454E-1,-0E0,4.472272E-2,1.2319467E-2,-3.3112583E-1,-0E0,-2.3391813E-1,3.2258064E-1,2.969121E-1,2.7624309E-2,-7.624329E-2,2.8169015E-1,-0E0,4.0983605E-1,3.9007092E-1,-0E0,3.6585367E-1,-1.2195122E-1,-4.6583852E-1,-1.8272425E-1,6.761833E-2,-2.4752475E-1,-6.240639E-2,6.0728744E-2,1.8518518E-1,-1.5743756E-1,2.1148036E-1,-8.749562E-3],"split_indices":[15,10,3,7,7,15,18,7,11,15,11,18,7,11,12,3,18,7,7,11,11,3,0,12,10,11,10,10,11,0,0,0,0,0,0,0,0,0,0,0,0,0,0,0,0,0,0,0,0,0,0,0,0,0,0,0,0],"split_type":[0,0,0,0,0,0,0,0,0,0,0,0,0,0,0,0,0,0,0,0,0,0,0,0,0,0,0,0,0,0,0,0,0,0,0,0,0,0,0,0,0,0,0,0,0,0,0,0,0,0,0,0,0,0,0,0,0],"sum_hessian":[9.414E3,5.596E3,3.818E3,4.983E3,6.13E2,1.673E3,2.145E3,4.903E3,8E1,5.95E2,1.8E1,5.4E1,1.619E3,2.133E3,1.2E1,4.877E3,2.6E1,2E1,6E1,5.84E2,1.1E1,1.6E1,2E0,8E0,4.6E1,1.43E2,1.476E3,1E2,2.033E3,1E1,2E0,1.062E3,3.815E3,1.5E1,1.1E1,1.7E1,3E0,4.2E1,1.8E1,5.77E2,7E0,5E0,6E0,1.4E1,2E0,4E0,4E0,1.6E1,3E1,1.33E2,1E1,1.402E3,7.4E1,8E0,9.2E1,3.3E1,2E3],"tree_param":{"num_deleted":"0","num_feature":"26","num_nodes":"57","size_leaf_vector":"0"}},{"base_weights":[-3.5061252E-3,4.3541364E-2,-2.998625E-2,-1.7521091E-1,5.4312404E-2,4.276175E-3,-6.508461E-2,-4.7125354E-2,-4.3659043E-1,5.799632E-2,-6.6225165E-1,1.447015E-1,-8.111977E-2,-1.1032602E-1,1.2324249E-1,-2.6128265E-1,7.800312E-2,-5.6265986E-1,-0E0,8.083635E-2,-3.3117805E-2,-0E0,-9.0909094E-1,3.007962E-1,7.851797E-2,-4.176334E-1,-7.27036E-2,-2.3110965E-1,-6.905696E-2,2.7498677E-1,4.6499614E-2,5.5248618E-2,-5.394191E-1,-4.477612E-1,3.4013605E-1,4.7619048E-1,-6.469003E-1,4.918033E-1,-6.451613E-1,5.6081317E-2,1.6490193E-1,-3.7433156E-1,-0E0,3.8531443E-1,-4.6801873E-2,1.2646927E-1,-1.397624E-1,-5.511811E-1,3.9215687E-1,-5.9192E-2,-2.9097962E-1,-3.0829093E-1,-1.3400942E-1,-9.4492264E-2,7.544323E-2,3.3918837E-1,-1.2448133E-1,-2.1887825E-1,1.1142948E-1],"categories":[],"categories_nodes":[],"categories_segments":[],"categories_sizes":[],"default_left":[1,1,1,1,1,1,1,1,1,1,1,1,1,1,1,1,1,1,1,1,1,0,0,1,1,1,1,1,1,1,1,0,0,0,0,0,0,0,0,0,0,0,0,0,0,0,0,0,0,0,0,0,0,0,0,0,0,0,0],"id":15,"left_children":[1,3,5,7,9,11,13,15,17,19,21,23,25,27,29,31,33,35,37,39,41,-1,-1,43,45,47,49,51,53,55,57,-1,-1,-1,-1,-1,-1,-1,-1,-1,-1,-1,-1,-1,-1,-1,-1,-1,-1,-1,-1,-1,-1,-1,-1,-1,-1,-1,-1],"loss_changes":[1.171239E1,7.8347845E0,7.319578E0,4.6733317E0,7.905161E0,3.652088E1,2.5515766E1,3.0284982E0,3.2101173E0,6.7221184E0,3.3774834E0,1.1541218E1,4.848359E0,1.1761536E1,6.3860884E0,4.193588E0,8.741876E0,3.6232805E0,2.7657323E0,5.1328316E0,7.1654882E0,0E0,0E0,1.0302519E1,8.519986E0,4.8417163E0,5.0838833E0,4.1258545E0,6.672615E0,5.06868E0,6.5650907E0,0E0,0E0,0E0,0E0,0E0,0E0,0E0,0E0,0E0,0E0,0E0,0E0,0E0,0E0,0E0,0E0,0E0,0E0,0E0,0E0,0E0,0E0,0E0,0E0,0E0,0E0,0E0,0E0],"parents":[2147483647,0,0,1,1,2,2,3,3,4,4,5,5,6,6,7,7,8,8,9,9,10,10,11,11,12,12,13,13,14,14,15,15,16,16,17,17,18,18,19,19,20,20,23,23,24,24,25,25,26,26,27,27,28,28,29,29,30,30],"right_children":[2,4,6,8,10,12,14,16,18,20,22,24,26,28,30,32,34,36,38,40,42,-1,-1,44,46,48,50,52,54,56,58,-1,-1,-1,-1,-1,-1,-1,-1,-1,-1,-1,-1,-1,-1,-1,-1,-1,-1,-1,-1,-1,-1,-1,-1,-1,-1,-1,-1],"split_conditions":[2.65E1,1.5637501E1,5E-1,1.5442499E1,4.3887497E1,3.5E0,1.45E1,5E-1,7.8499997E-1,1.55E1,1.85E1,2.65875E1,2.75E1,6.325E1,2.5E0,6.5E0,1.5E0,4.6E1,1.15E2,9.55E-1,1.65E1,-0E0,-4.5454547E-1,9.5E0,7.05E1,2.707E1,1.125E2,6.15E1,5E-1,8.05E1,2.3502499E1,2.7624309E-2,-2.6970956E-1,-2.238806E-1,1.7006803E-1,2.3809524E-1,-3.2345015E-1,2.4590164E-1,-3.2258064E-1,2.8040659E-2,8.245096E-2,-1.8716578E-1,-0E0,1.9265722E-1,-2.3400936E-2,6.3234635E-2,-6.98812E-2,-2.7559054E-1,1.9607843E-1,-2.9596E-2,-1.4548981E-1,-1.5414546E-1,-6.700471E-2,-4.7246132E-2,3.7721615E-2,1.6959418E-1,-6.2240664E-2,-1.0943913E-1,5.571474E-2],"split_indices":[5,13,4,13,13,18,18,4,15,18,5,13,5,12,3,18,18,12,9,15,18,0,0,3,5,13,9,5,22,9,13,0,0,0,0,0,0,0,0,0,0,0,0,0,0,0,0,0,0,0,0,0,0,0,0,0,0,0,0],"split_type":[0,0,0,0,0,0,0,0,0,0,0,0,0,0,0,0,0,0,0,0,0,0,0,0,0,0,0,0,0,0,0,0,0,0,0,0,0,0,0,0,0,0,0,0,0,0,0,0,0,0,0,0,0,0,0,0,0,0,0],"sum_hessian":[9.412E3,3.376E3,6.036E3,1.54E2,3.222E3,3.04E3,2.996E3,1.06E2,4.8E1,3.207E3,1.5E1,1.154E3,1.886E3,2.42E3,5.76E2,4.2E1,6.4E1,3.9E1,9E0,2.573E3,6.34E2,3E0,1.2E1,3.39E2,8.15E2,4.3E1,1.843E3,6.1E2,1.81E3,1.89E2,3.87E2,1.8E1,2.4E1,2E1,4.4E1,2E0,3.7E1,6E0,3E0,1.997E3,5.76E2,5.6E1,5.78E2,2.75E2,6.4E1,6.72E2,1.43E2,3.8E1,5E0,1.74E3,1.03E2,3.34E2,2.76E2,1.545E3,2.65E2,1.65E2,2.4E1,7.3E1,3.14E2],"tree_param":{"num_deleted":"0","num_feature":"26","num_nodes":"59","size_leaf_vector":"0"}},{"base_weights":[-1.840666E-2,-7.216582E-2,1.4120209E-2,-4.3966427E-2,-1.6522901E-1,9.701338E-2,-1.2626547E-2,-9.114653E-2,5.5929687E-2,-2.1871746E-1,6.618134E-2,1.873143E-1,-5.9781796E-3,-2.5853276E-2,2.3733455E-1,-2.0225085E-1,-3.6418337E-2,2.4281667E-1,-1.5895724E-2,-2.512142E-1,2.6631158E-2,-8.196721E-1,1.1026878E-1,-7.328448E-2,2.5156224E-1,-1.9496633E-1,1.2916559E-1,1.0790936E-2,-7.992533E-2,3.938731E-1,-1.2180268E-2,-1.22633964E-1,-3.2339352E-1,-1.4095017E-2,-4.9036777E-1,-3.2733224E-2,3.3852768E-1,-4.1383877E-2,5.5776894E-1,-2.9752788E-1,-9.2790864E-2,-8.319467E-2,5.298013E-1,6.3829786E-1,4.5766592E-2,-1.230992E-1,4.1322315E-1,2.7764004E-1,-5.235602E-1,1.7683465E-2,-3.429923E-1,2.2583859E-1,-1.9744483E-1,1.2284509E-3,3.826955E-1,-1.8672392E-3,-2.0836572E-1,5.0454086E-1,7.874016E-2,1.3215859E-1,-7.8014183E-1],"categories":[],"categories_nodes":[],"categories_segments":[],"categories_sizes":[],"default_left":[1,1,1,1,1,1,1,1,1,1,1,1,1,1,1,1,1,1,1,1,1,0,1,1,1,1,1,1,1,1,1,0,0,0,0,0,0,0,0,0,0,0,0,0,0,0,0,0,0,0,0,0,0,0,0,0,0,0,0,0,0],"id":16,"left_children":[1,3,5,7,9,11,13,15,17,19,21,23,25,27,29,31,33,35,37,39,41,-1,43,45,47,49,51,53,55,57,59,-1,-1,-1,-1,-1,-1,-1,-1,-1,-1,-1,-1,-1,-1,-1,-1,-1,-1,-1,-1,-1,-1,-1,-1,-1,-1,-1,-1,-1,-1],"loss_changes":[1.6588E1,9.172304E0,1.31169815E1,1.3006673E1,1.0342133E1,1.3602614E1,1.4452317E1,1.1168293E1,1.1987403E1,5.5839233E0,5.2008476E0,1.3140829E1,1.7157515E1,8.423118E0,8.93993E0,5.46336E0,1.229467E1,6.8237095E0,8.684404E0,3.9879456E0,4.6011214E0,0E0,4.25498E0,3.3526728E0,1.2383862E1,9.205773E0,1.2255307E1,8.514326E0,1.6974972E1,4.1941185E0,9.758807E0,0E0,0E0,0E0,0E0,0E0,0E0,0E0,0E0,0E0,0E0,0E0,0E0,0E0,0E0,0E0,0E0,0E0,0E0,0E0,0E0,0E0,0E0,0E0,0E0,0E0,0E0,0E0,0E0,0E0,0E0],"parents":[2147483647,0,0,1,1,2,2,3,3,4,4,5,5,6,6,7,7,8,8,9,9,10,10,11,11,12,12,13,13,14,14,15,15,16,16,17,17,18,18,19,19,20,20,22,22,23,23,24,24,25,25,26,26,27,27,28,28,29,29,30,30],"right_children":[2,4,6,8,10,12,14,16,18,20,22,24,26,28,30,32,34,36,38,40,42,-1,44,46,48,50,52,54,56,58,60,-1,-1,-1,-1,-1,-1,-1,-1,-1,-1,-1,-1,-1,-1,-1,-1,-1,-1,-1,-1,-1,-1,-1,-1,-1,-1,-1,-1,-1,-1],"split_conditions":[3.5E0,2.385E2,1.05E1,3.85E1,1.725E0,3.55E1,3.855E2,3.55E1,3.15E1,7.35E1,2.805E2,2.65E1,5E-1,5.35E1,7.855E2,1.25E1,2.5E0,1.5E0,1.24E2,1.95E-1,5E-1,-4.0983605E-1,1.95E1,3.35E1,1.6E2,7.5E0,5.05E1,5.15E1,1.25E1,2.75E1,5.7E1,-6.1316982E-2,-1.6169676E-1,-7.0475084E-3,-2.4518389E-1,-1.6366612E-2,1.6926384E-1,-2.0691939E-2,2.7888447E-1,-1.4876394E-1,-4.6395432E-2,-4.1597337E-2,2.6490065E-1,3.1914893E-1,2.2883296E-2,-6.15496E-2,2.0661157E-1,1.3882002E-1,-2.617801E-1,8.8417325E-3,-1.7149615E-1,1.1291929E-1,-9.872241E-2,6.1422546E-4,1.9134775E-1,-9.336196E-4,-1.0418286E-1,2.5227043E-1,3.937008E-2,6.6079296E-2,-3.9007092E-1],"split_indices":[18,2,2,2,15,5,2,10,5,5,2,9,0,2,2,8,16,5,9,15,23,0,5,5,10,18,7,2,18,8,7,0,0,0,0,0,0,0,0,0,0,0,0,0,0,0,0,0,0,0,0,0,0,0,0,0,0,0,0,0,0],"split_type":[0,0,0,0,0,0,0,0,0,0,0,0,0,0,0,0,0,0,0,0,0,0,0,0,0,0,0,0,0,0,0,0,0,0,0,0,0,0,0,0,0,0,0,0,0,0,0,0,0,0,0,0,0,0,0,0,0,0,0,0,0],"sum_hessian":[9.453E3,3.575E3,5.878E3,2.752E3,8.23E2,1.443E3,4.435E3,1.876E3,8.76E2,6.72E2,1.51E2,7.74E2,6.69E2,4.216E3,2.19E2,6.13E2,1.263E3,2.47E2,6.29E2,5.97E2,7.5E1,6E0,1.45E2,1.5E2,6.24E2,2.82E2,3.87E2,2.502E3,1.714E3,1.37E2,8.2E1,3.75E2,2.38E2,1.206E3,5.7E1,6.1E1,1.86E2,6.04E2,2.5E1,4.57E2,1.4E2,6E1,1.5E1,1.4E1,1.31E2,1.38E2,1.2E1,6.05E2,1.9E1,1.13E2,1.69E2,3.01E2,8.6E1,2.442E3,6E1,1.071E3,6.43E2,9.9E1,3.8E1,6.8E1,1.4E1],"tree_param":{"num_deleted":"0","num_feature":"26","num_nodes":"61","size_leaf_vector":"0"}},{"base_weights":[-5.8663134E-3,3.092624E-3,-1.0149104E-1,-6.9743763E-3,6.2192068E-2,-2.1195824E-1,-2.696536E-2,2.9827826E-2,-4.017869E-2,1.688999E-2,1.7423594E-1,5.1635113E-2,-2.7508718E-1,9.8076195E-2,-1.842469E-1,-2.618658E-1,3.5487656E-2,-4.3026745E-2,4.9723756E-1,2.7425436E-2,-6.10687E-1,2.656461E-1,7.8064012E-3,-1.6611296E-1,3.202847E-1,-1.8569088E-1,-4.7936085E-1,4.977188E-2,5.394191E-1,-6.267806E-1,-9.33553E-2,-8.287293E-1,-0E0,1.8537663E-2,1.24975964E-1,-8.805351E-2,-2.205797E-2,8.910891E-1,-0E0,4.639238E-2,-2.3172906E-1,-8.6419755E-1,-0E0,3.0183077E-1,-4.9751244E-2,-5.590062E-1,9.812667E-2,3.6036035E-1,-5.235602E-1,4.9773756E-1,-1.6393442E-1,-2.2661243E-1,3.6036035E-1,-6.4449066E-1,-1.4760147E-1,4.714757E-3,3.4364262E-1,-2.4390244E-1,7.4626863E-1,-8.045977E-1,-0E0,6.930693E-1,-1.4526439E-1],"categories":[],"categories_nodes":[],"categories_segments":[],"categories_sizes":[],"default_left":[1,1,1,1,1,1,1,1,1,1,1,1,1,1,1,1,1,1,1,1,1,1,1,1,1,1,1,1,1,1,1,0,0,0,0,0,0,0,0,0,0,0,0,0,0,0,0,0,0,0,0,0,0,0,0,0,0,0,0,0,0,0,0],"id":17,"left_children":[1,3,5,7,9,11,13,15,17,19,21,23,25,27,29,31,33,35,37,39,41,43,45,47,49,51,53,55,57,59,61,-1,-1,-1,-1,-1,-1,-1,-1,-1,-1,-1,-1,-1,-1,-1,-1,-1,-1,-1,-1,-1,-1,-1,-1,-1,-1,-1,-1,-1,-1,-1,-1],"loss_changes":[7.9844017E0,5.0571E0,6.3309774E0,8.771052E0,6.092953E0,5.484892E0,9.569307E0,5.364785E0,5.3383102E0,5.290357E0,5.052535E0,3.5582216E0,4.0392914E0,5.0597296E0,8.006338E0,8.241087E0,4.899853E0,3.4445367E0,3.544664E0,4.117178E0,1.1638865E0,2.788309E0,6.102643E0,5.8464785E0,2.756485E0,3.9658365E0,3.312626E0,2.8438783E0,4.4254837E0,3.107377E0,6.896055E0,0E0,0E0,0E0,0E0,0E0,0E0,0E0,0E0,0E0,0E0,0E0,0E0,0E0,0E0,0E0,0E0,0E0,0E0,0E0,0E0,0E0,0E0,0E0,0E0,0E0,0E0,0E0,0E0,0E0,0E0,0E0,0E0],"parents":[2147483647,0,0,1,1,2,2,3,3,4,4,5,5,6,6,7,7,8,8,9,9,10,10,11,11,12,12,13,13,14,14,15,15,16,16,17,17,18,18,19,19,20,20,21,21,22,22,23,23,24,24,25,25,26,26,27,27,28,28,29,29,30,30],"right_children":[2,4,6,8,10,12,14,16,18,20,22,24,26,28,30,32,34,36,38,40,42,44,46,48,50,52,54,56,58,60,62,-1,-1,-1,-1,-1,-1,-1,-1,-1,-1,-1,-1,-1,-1,-1,-1,-1,-1,-1,-1,-1,-1,-1,-1,-1,-1,-1,-1,-1,-1,-1,-1],"split_conditions":[4.055E2,1.155E2,6.245E2,1.85E1,5.5E0,7.5E0,4.5E0,8.725E1,1.715E2,6.3E1,1.15E1,5.395E2,5.465E2,1.78E0,5.5E0,7.5E0,3.1942501E1,2.95E1,1.85E1,5E-1,2.417E1,5E-1,1.80875E1,4.525E2,5E-1,4.05E1,1.255E2,1.7925E3,2.0805E1,2.04E0,6.725E2,-4.1436464E-1,-0E0,9.268831E-3,6.2487982E-2,-4.4026755E-2,-1.1028985E-2,4.4554454E-1,-0E0,2.319619E-2,-1.1586453E-1,-4.3209878E-1,-0E0,1.5091538E-1,-2.4875622E-2,-2.795031E-1,4.9063336E-2,1.8018018E-1,-2.617801E-1,2.4886878E-1,-8.196721E-2,-1.1330622E-1,1.8018018E-1,-3.2224533E-1,-7.3800735E-2,2.3573786E-3,1.7182131E-1,-1.2195122E-1,3.7313432E-1,-4.0229884E-1,-0E0,3.4653464E-1,-7.263219E-2],"split_indices":[2,2,2,2,3,17,3,11,11,17,3,2,2,15,17,17,20,2,17,21,20,21,20,2,23,17,11,2,20,15,2,0,0,0,0,0,0,0,0,0,0,0,0,0,0,0,0,0,0,0,0,0,0,0,0,0,0,0,0,0,0,0,0],"split_type":[0,0,0,0,0,0,0,0,0,0,0,0,0,0,0,0,0,0,0,0,0,0,0,0,0,0,0,0,0,0,0,0,0,0,0,0,0,0,0,0,0,0,0,0,0,0,0,0,0,0,0,0,0,0,0,0,0,0,0,0,0,0,0],"sum_hessian":[9.205E3,8.407E3,7.98E2,7.169E3,1.238E3,3.16E2,4.82E2,3.386E3,3.783E3,8.88E2,3.5E2,5.8E1,2.58E2,2.65E2,2.17E2,6.1E1,3.325E3,3.765E3,1.8E1,8.75E2,1.3E1,2.22E2,1.28E2,3E1,2.8E1,1.83E2,7.5E1,2.41E2,2.4E1,3.5E1,1.82E2,1.8E1,4.3E1,2.805E3,5.2E2,1.181E3,2.584E3,1E1,8E0,8.19E2,5.6E1,8E0,5E0,2.02E2,2E1,1.6E1,1.12E2,1.1E1,1.9E1,2.2E1,6E0,1.72E2,1.1E1,4.8E1,2.7E1,2.12E2,2.9E1,4E0,2E1,2.6E1,9E0,1E1,1.72E2],"tree_param":{"num_deleted":"0","num_feature":"26","num_nodes":"63","size_leaf_vector":"0"}},{"base_weights":[-1.4228584E-2,1.7581586E-3,-7.753173E-2,6.7694724E-4,8.6419755E-1,-2.4108489E-1,-5.759753E-2,-2.3344913E-3,2.2094141E-1,-9.640666E-2,-4.2303172E-1,2.639296E-1,-6.4844556E-2,-1.3800527E-4,-4.1551247E-1,4.2121685E-1,-7.481297E-2,-3.2586557E-1,6.1443932E-2,-5.4091537E-1,1.5267175E-1,-3.9215687E-1,4.1237113E-1,-1.4600347E-1,-3.7717678E-2,-6.2864576E-3,1.0096035E-1,-8.658009E-2,-9.160305E-1,6.185567E-1,2.2792023E-1,-3.654485E-1,6.930693E-1,-6.542056E-1,2.3391813E-1,4.2145595E-1,-1.5345268E-1,-2.9520294E-1,-6.651885E-1,-2.8169015E-1,8.196721E-1,-6.451613E-1,-0E0,-0E0,7.1823204E-1,-1.6577403E-1,4.1322315E-1,-1.10466205E-1,1.5447268E-2],"categories":[],"categories_nodes":[],"categories_segments":[],"categories_sizes":[],"default_left":[1,1,1,1,0,1,1,1,1,1,1,1,1,1,1,1,1,1,1,1,1,1,1,1,1,0,0,0,0,0,0,0,0,0,0,0,0,0,0,0,0,0,0,0,0,0,0,0,0],"id":18,"left_children":[1,3,5,7,-1,9,11,13,15,17,19,21,23,25,27,29,31,33,35,37,39,41,43,45,47,-1,-1,-1,-1,-1,-1,-1,-1,-1,-1,-1,-1,-1,-1,-1,-1,-1,-1,-1,-1,-1,-1,-1,-1],"loss_changes":[9.464315E0,6.029911E0,5.839402E0,5.117954E0,0E0,4.7175417E0,3.7267737E0,6.1931386E0,6.5156417E0,4.3991513E0,6.1719027E0,3.3574004E0,3.4485679E0,4.4095545E0,4.9328403E0,1.584527E0,8.64698E0,9.460141E0,5.310956E0,1.2215767E0,4.356397E0,5.060088E-1,4.3885627E0,4.2272234E0,4.9146953E0,0E0,0E0,0E0,0E0,0E0,0E0,0E0,0E0,0E0,0E0,0E0,0E0,0E0,0E0,0E0,0E0,0E0,0E0,0E0,0E0,0E0,0E0,0E0,0E0],"parents":[2147483647,0,0,1,1,2,2,3,3,5,5,6,6,7,7,8,8,9,9,10,10,11,11,12,12,13,13,14,14,15,15,16,16,17,17,18,18,19,19,20,20,21,21,22,22,23,23,24,24],"right_children":[2,4,6,8,-1,10,12,14,16,18,20,22,24,26,28,30,32,34,36,38,40,42,44,46,48,-1,-1,-1,-1,-1,-1,-1,-1,-1,-1,-1,-1,-1,-1,-1,-1,-1,-1,-1,-1,-1,-1,-1,-1],"split_conditions":[1.585E0,4.971E1,1.805E0,1.495E0,4.3209878E-1,4.25E1,1.835E0,1.465E0,5.25E1,2.35E1,8.9E1,1.45E1,5.5E0,1.145E0,2.77775E1,1.535E0,5.55E1,5.85E1,3.25E1,1.665E0,1.655E0,5E-1,4.55E1,5E-1,4.05E1,-3.1432288E-3,5.0480176E-2,-4.3290045E-2,-4.5801526E-1,3.0927834E-1,1.1396012E-1,-1.8272425E-1,3.4653464E-1,-3.271028E-1,1.16959065E-1,2.1072797E-1,-7.672634E-2,-1.4760147E-1,-3.3259425E-1,-1.4084508E-1,4.0983605E-1,-3.2258064E-1,-0E0,-0E0,3.5911602E-1,-8.2887016E-2,2.0661157E-1,-5.5233102E-2,7.723634E-3],"split_indices":[15,13,15,15,0,7,15,15,5,7,7,7,1,15,13,15,7,5,7,15,15,4,5,14,7,0,0,0,0,0,0,0,0,0,0,0,0,0,0,0,0,0,0,0,0,0,0,0,0],"split_type":[0,0,0,0,0,0,0,0,0,0,0,0,0,0,0,0,0,0,0,0,0,0,0,0,0,0,0,0,0,0,0,0,0,0,0,0,0,0,0,0,0,0,0,0,0,0,0,0,0],"sum_hessian":[9.277E3,7.394E3,1.883E3,7.386E3,8E0,1.99E2,1.684E3,7.282E3,1.04E2,1.14E2,8.5E1,3.4E1,1.65E3,7.246E3,3.6E1,6.4E1,4E1,4.9E1,6.5E1,7.2E1,1.3E1,5E0,2.9E1,4.04E2,1.246E3,6.84E3,4.06E2,2.3E1,1.3E1,2.9E1,3.5E1,3E1,1E1,3.2E1,1.7E1,2.6E1,3.9E1,2.7E1,4.5E1,7E0,6E0,3E0,2E0,1.1E1,1.8E1,3.92E2,1.2E1,5.34E2,7.12E2],"tree_param":{"num_deleted":"0","num_feature":"26","num_nodes":"49","size_leaf_vector":"0"}},{"base_weights":[6.565198E-4,-8.478759E-3,5.9817314E-2,5.4811683E-2,-2.0829875E-2,1.0134718E-1,-1.635132E-2,4.406698E-2,4.8109967E-1,1.529219E-1,-2.5923224E-2,8.6419755E-1,9.237298E-2,-5.3557765E-2,3.601108E-1,5.284123E-2,-4.9723756E-1,7.5829387E-1,-1.2345679E-1,-0E0,4.9036777E-1,-1.3394994E-1,-1.4101219E-2,-4.5801526E-1,1.0277884E-1,-3.1323414E-2,-8.791209E-1,8.187134E-1,-0E0,4.6717484E-2,6.930693E-1,-7.633588E-1,-0E0,9.3167704E-1,-0E0,-0E0,-6.451613E-1,-5.472637E-1,1.03675775E-1,-0E0,5.7026476E-1,-1.8675722E-1,1.4418125E-1,6.2827224E-1,-1.6390331E-2,-8.450704E-1,-0E0,8.864555E-2,5.687204E-1,-4.6783626E-1,-8.194482E-3,9.2715234E-1,-0E0,-2.6490065E-1,7.3170733E-1],"categories":[],"categories_nodes":[],"categories_segments":[],"categories_sizes":[],"default_left":[1,1,1,1,1,1,1,1,1,1,1,0,1,1,1,1,1,1,1,1,1,1,1,1,1,1,0,1,1,0,0,0,0,0,0,0,0,0,0,0,0,0,0,0,0,0,0,0,0,0,0,0,0,0,0],"id":19,"left_children":[1,3,5,7,9,11,13,15,17,19,21,-1,23,25,27,29,31,33,35,37,39,41,43,45,47,49,-1,51,53,-1,-1,-1,-1,-1,-1,-1,-1,-1,-1,-1,-1,-1,-1,-1,-1,-1,-1,-1,-1,-1,-1,-1,-1,-1,-1],"loss_changes":[4.990619E0,6.143264E0,3.9984465E0,5.322261E0,5.736469E0,4.5745144E0,5.6916943E0,5.4861345E0,5.520764E0,9.448484E0,8.078915E0,0E0,4.2375765E0,6.284135E0,6.780548E0,4.0797014E0,3.1584496E0,1.842453E0,1.1668657E0,7.1603336E0,2.2371159E0,9.255708E0,7.9400487E0,2.322331E0,4.5274563E0,3.3913925E0,0E0,1.5181437E0,3.2547245E0,0E0,0E0,0E0,0E0,0E0,0E0,0E0,0E0,0E0,0E0,0E0,0E0,0E0,0E0,0E0,0E0,0E0,0E0,0E0,0E0,0E0,0E0,0E0,0E0,0E0,0E0],"parents":[2147483647,0,0,1,1,2,2,3,3,4,4,5,5,6,6,7,7,8,8,9,9,10,10,12,12,13,13,14,14,15,15,16,16,17,17,18,18,19,19,20,20,21,21,22,22,23,23,24,24,25,25,27,27,28,28],"right_children":[2,4,6,8,10,12,14,16,18,20,22,-1,24,26,28,30,32,34,36,38,40,42,44,46,48,50,-1,52,54,-1,-1,-1,-1,-1,-1,-1,-1,-1,-1,-1,-1,-1,-1,-1,-1,-1,-1,-1,-1,-1,-1,-1,-1,-1,-1],"split_conditions":[3.25E1,1.95E1,8.25E1,4.2265E1,1.61375E1,1.562E1,2.715E2,3.87375E1,4.6605E1,5.45E1,1.9075E1,4.3209878E-1,1.6145E1,2.585E2,8.25E1,4.55E1,4.09825E1,4.56325E1,5E-1,3.4E1,3.25E1,4.65E1,1.9165E1,7.95E1,1.335E2,3.45E1,-4.3956044E-1,4.195E1,3.258E1,2.3358742E-2,3.4653464E-1,-3.816794E-1,-0E0,4.6583852E-1,-0E0,-0E0,-3.2258064E-1,-2.7363184E-1,5.1837888E-2,-0E0,2.8513238E-1,-9.337861E-2,7.2090626E-2,3.1413612E-1,-8.195166E-3,-4.225352E-1,-0E0,4.4322774E-2,2.843602E-1,-2.3391813E-1,-4.097241E-3,4.6357617E-1,-0E0,-1.3245033E-1,3.6585367E-1],"split_indices":[8,9,7,13,20,13,10,13,13,10,13,0,13,10,8,7,13,20,4,9,9,7,13,9,9,8,0,13,20,0,0,0,0,0,0,0,0,0,0,0,0,0,0,0,0,0,0,0,0,0,0,0,0,0,0],"split_type":[0,0,0,0,0,0,0,0,0,0,0,0,0,0,0,0,0,0,0,0,0,0,0,0,0,0,0,0,0,0,0,0,0,0,0,0,0,0,0,0,0,0,0,0,0,0,0,0,0,0,0,0,0,0,0],"sum_hessian":[9.139E3,7.902E3,1.237E3,1.277E3,6.625E3,8.09E2,4.28E2,1.248E3,2.9E1,1.83E2,6.442E3,8E0,8.01E2,3.92E2,3.6E1,1.23E3,1.8E1,2.1E1,8E0,1.26E2,5.7E1,6.27E2,5.815E3,1.3E1,7.88E2,3.83E2,9E0,1.7E1,1.9E1,1.22E3,1E1,1.3E1,5E0,1.6E1,5E0,5E0,3E0,2E1,1.06E2,8E0,4.9E1,5.3E2,9.7E1,1.9E1,5.796E3,7E0,6E0,7.67E2,2.1E1,1.7E1,3.66E2,1.5E1,2E0,1.5E1,4E0],"tree_param":{"num_deleted":"0","num_feature":"26","num_nodes":"55","size_leaf_vector":"0"}},{"base_weights":[-6.5323187E-4,1.8799642E-2,-4.5323152E-2,-4.846697E-2,3.073186E-2,4.4474094E-3,-9.221664E-2,2.525784E-2,-1.2444632E-1,2.1385401E-1,2.299247E-2,3.9647576E-1,-1.5611583E-2,-9.839928E-2,6.930693E-1,6.801179E-2,-4.9853373E-1,-1.0132853E-1,-4.3189368E-1,3.4436193E-1,-5.961252E-2,1.8412959E-2,2.1910605E-1,6.4965194E-1,-0E0,-8.757845E-2,6.542526E-2,-2.9431897E-1,-7.555316E-2,8.6419755E-1,-0E0,-1.2202208E-1,1.9323671E-1,-6.430868E-1,6.451613E-1,-1.313549E-1,2.4169184E-1,-5.338078E-1,4.7619048E-1,4.9949032E-1,1.996008E-2,7.8277886E-2,-5.590062E-1,1.9611305E-2,-8.196721E-1,7.8014183E-1,1.2987013E-1,7.917889E-1,-0E0,-7.3170733E-1,9.478673E-2,9.609225E-2,-1.4364015E-1,-2.887139E-1,9.1381475E-2,-3.508772E-1,1.3245033E-1,-5.8770712E-2,-3.4674063E-1],"categories":[],"categories_nodes":[],"categories_segments":[],"categories_sizes":[],"default_left":[1,1,1,1,1,1,1,1,1,1,1,1,1,1,1,1,1,1,1,1,1,1,1,1,1,1,1,1,1,0,0,0,0,0,0,0,0,0,0,0,0,0,0,0,0,0,0,0,0,0,0,0,0,0,0,0,0,0,0],"id":20,"left_children":[1,3,5,7,9,11,13,15,17,19,21,23,25,27,29,31,33,35,37,39,41,43,45,47,49,51,53,55,57,-1,-1,-1,-1,-1,-1,-1,-1,-1,-1,-1,-1,-1,-1,-1,-1,-1,-1,-1,-1,-1,-1,-1,-1,-1,-1,-1,-1,-1,-1],"loss_changes":[8.008078E0,5.105744E0,6.6276746E0,5.415946E0,7.4641604E0,1.0990393E1,6.4671526E0,1.0212333E1,2.8320694E0,7.963624E0,4.4493732E0,7.4854107E0,7.494061E0,6.087228E0,1.1978974E0,1.0570419E1,5.6769857E0,4.466915E0,2.86869E0,6.9325275E0,5.1057177E0,4.328673E0,4.7922206E0,3.1880436E0,2.3846955E0,7.103327E0,5.2847233E0,3.7495356E0,5.4957976E0,0E0,0E0,0E0,0E0,0E0,0E0,0E0,0E0,0E0,0E0,0E0,0E0,0E0,0E0,0E0,0E0,0E0,0E0,0E0,0E0,0E0,0E0,0E0,0E0,0E0,0E0,0E0,0E0,0E0,0E0],"parents":[2147483647,0,0,1,1,2,2,3,3,4,4,5,5,6,6,7,7,8,8,9,9,10,10,11,11,12,12,13,13,14,14,15,15,16,16,17,17,18,18,19,19,20,20,21,21,22,22,23,23,24,24,25,25,26,26,27,27,28,28],"right_children":[2,4,6,8,10,12,14,16,18,20,22,24,26,28,30,32,34,36,38,40,42,44,46,48,50,52,54,56,58,-1,-1,-1,-1,-1,-1,-1,-1,-1,-1,-1,-1,-1,-1,-1,-1,-1,-1,-1,-1,-1,-1,-1,-1,-1,-1,-1,-1,-1,-1],"split_conditions":[7.25E1,1.0175E2,6.575E1,9.675E1,5.375E1,2.5E0,1.0425E2,6.25E1,5.75E1,1.09E0,6.75E1,5.75E1,5.65E1,8.75E1,1.095E2,2.5E0,5E-1,4.75E1,3.45875E1,5E-1,1.255E2,1.065E2,1.55E1,4.03E2,1.045E2,2.2220001E1,9.45E1,1.105E2,1.5275E2,4.3209878E-1,-0E0,-6.101104E-2,9.6618354E-2,-3.215434E-1,3.2258064E-1,-6.567745E-2,1.2084592E-1,-2.669039E-1,2.3809524E-1,2.4974516E-1,9.98004E-3,3.9138943E-2,-2.795031E-1,9.805652E-3,-4.0983605E-1,3.9007092E-1,6.4935066E-2,3.9589444E-1,-0E0,-3.6585367E-1,4.7393367E-2,4.8046123E-2,-7.182007E-2,-1.4435695E-1,4.5690738E-2,-1.754386E-1,6.622516E-2,-2.9385356E-2,-1.7337032E-1],"split_indices":[2,11,12,11,12,17,12,5,2,15,2,5,10,2,12,5,25,2,13,23,11,12,5,2,11,13,11,10,11,0,0,0,0,0,0,0,0,0,0,0,0,0,0,0,0,0,0,0,0,0,0,0,0,0,0,0,0,0,0],"split_type":[0,0,0,0,0,0,0,0,0,0,0,0,0,0,0,0,0,0,0,0,0,0,0,0,0,0,0,0,0,0,0,0,0,0,0,0,0,0,0,0,0,0,0,0,0,0,0,0,0,0,0,0,0,0,0,0,0,0,0],"sum_hessian":[9.185E3,6.383E3,2.802E3,9.49E2,5.434E3,1.349E3,1.453E3,4.75E2,4.74E2,2.15E2,5.219E3,6.8E1,1.281E3,1.443E3,1E1,4.41E2,3.4E1,4.44E2,3E1,1.48E2,6.7E1,5.105E3,1.14E2,4.3E1,2.5E1,6.85E2,5.96E2,1.46E2,1.297E3,8E0,2E0,1.72E2,2.69E2,3.1E1,3E0,4.11E2,3.3E1,2.8E1,2E0,9.8E1,5E1,5.1E1,1.6E1,5.099E3,6E0,1.4E1,1E2,3.4E1,9E0,4E0,2.1E1,1.56E2,5.29E2,3.8E1,5.58E2,1.31E2,1.5E1,1.225E3,7.2E1],"tree_param":{"num_deleted":"0","num_feature":"26","num_nodes":"59","size_leaf_vector":"0"}},{"base_weights":[8.621547E-3,9.290905E-3,-8.196721E-1,8.201173E-3,4.9723756E-1,-1.7009135E-2,2.547368E-2,-4.7619048E-1,6.832298E-1,5.8878217E-2,-4.4824623E-2,-1.2870012E-1,3.2652427E-2,9.0909094E-1,-0E0,2.1921341E-1,2.7056942E-2,-4.881529E-2,6.3829786E-1,-1.5344147E-1,7.8431374E-1,-3.8546897E-2,4.7096126E-2,-4.7619048E-1,4.7619048E-1],"categories":[],"categories_nodes":[],"categories_segments":[],"categories_sizes":[],"default_left":[1,1,0,1,1,1,1,0,1,1,1,1,1,0,1,0,0,0,0,0,0,0,0,0,0],"id":21,"left_children":[1,3,-1,5,7,9,11,-1,13,15,17,19,21,-1,23,-1,-1,-1,-1,-1,-1,-1,-1,-1,-1],"loss_changes":[4.206316E0,4.301589E0,0E0,3.9375734E0,3.51658E0,7.6804466E0,5.856717E0,0E0,2.4844723E0,4.6924505E0,6.711714E0,4.646703E0,5.2998586E0,0E0,9.5238096E-1,0E0,0E0,0E0,0E0,0E0,0E0,0E0,0E0,0E0,0E0],"parents":[2147483647,0,0,1,1,3,3,4,4,5,5,6,6,8,8,9,9,10,10,11,11,12,12,14,14],"right_children":[2,4,-1,6,8,10,12,-1,14,16,18,20,22,-1,24,-1,-1,-1,-1,-1,-1,-1,-1,-1,-1],"split_conditions":[2.74E1,2.367E1,-4.0983605E-1,2.6622501E1,5.55E1,5.975E1,1.5E0,-2.3809524E-1,1.51E2,7.5E0,1.015E2,9.175E1,5.875E1,4.5454547E-1,2.6E2,1.09606706E-1,1.3528471E-2,-2.4407646E-2,3.1914893E-1,-7.672074E-2,3.9215687E-1,-1.9273449E-2,2.3548063E-2,-2.3809524E-1,2.3809524E-1],"split_indices":[15,15,0,13,12,12,17,0,2,2,12,12,12,0,2,0,0,0,0,0,0,0,0,0,0],"split_type":[0,0,0,0,0,0,0,0,0,0,0,0,0,0,0,0,0,0,0,0,0,0,0,0,0],"sum_hessian":[9.047E3,9.041E3,6E0,9.023E3,1.8E1,3.645E3,5.378E3,2E0,1.6E1,9.68E2,2.677E3,2.33E2,5.145E3,1.2E1,4E0,1.55E2,8.13E2,2.663E3,1.4E1,2.28E2,5E0,8.56E2,4.289E3,2E0,2E0],"tree_param":{"num_deleted":"0","num_feature":"26","num_nodes":"25","size_leaf_vector":"0"}},{"base_weights":[7.2967685E-3,-5.023169E-4,6.561316E-2,-6.274638E-3,6.486315E-2,7.859104E-2,-4.2145595E-1,-4.3937336E-3,-2.7027026E-1,-5.405405E-1,7.728224E-2,6.2001772E-2,4.7381547E-1,-6.2827224E-1,-0E0,1.5031665E-2,-2.9146383E-2,6.451613E-1,-3.5476717E-1,-8.450704E-1,-0E0,1.9417475E-1,2.9141448E-2,6.831007E-2,-8.196721E-1,-1.8018018E-1,7.5601375E-1,-9.160305E-1,-0E0,-4.7619048E-1,3.9215687E-1,-1.907396E-2,5.2011628E-2,-3.1764816E-2,4.964539E-1,-5.338078E-1,-0E0,4.7619048E-1,-4.7619048E-1,2.5716385E-1,-0E0,4.5547713E-2,-8.450704E-1,7.5293645E-2,-3.5460994E-1,1.6393442E-1,-7.8431374E-1,8.118081E-1,-0E0,-6.451613E-1,6.451613E-1,6.451613E-1,-0E0],"categories":[],"categories_nodes":[],"categories_segments":[],"categories_sizes":[],"default_left":[1,1,1,1,1,1,1,1,1,1,1,1,1,1,1,1,1,0,1,0,1,1,1,1,0,1,1,0,1,0,1,0,0,0,0,0,0,0,0,0,0,0,0,0,0,0,0,0,0,0,0,0,0],"id":22,"left_children":[1,3,5,7,9,11,13,15,17,19,21,23,25,27,29,31,33,-1,35,-1,37,39,41,43,-1,45,47,-1,49,-1,51,-1,-1,-1,-1,-1,-1,-1,-1,-1,-1,-1,-1,-1,-1,-1,-1,-1,-1,-1,-1,-1,-1],"loss_changes":[4.178957E0,2.9460135E0,6.5005374E0,3.3654797E0,4.2934017E0,6.385549E0,2.9032516E0,3.516092E0,3.453084E0,1.8271794E0,3.271233E0,4.9056435E0,7.9901705E0,3.4530997E0,1.2605042E0,5.1512127E0,3.9754286E0,0E0,2.3308425E0,0E0,9.5238096E-1,2.3987927E0,5.6025376E0,2.706678E0,0E0,2.940829E0,1.2274761E0,0E0,2.580645E0,0E0,5.060088E-1,0E0,0E0,0E0,0E0,0E0,0E0,0E0,0E0,0E0,0E0,0E0,0E0,0E0,0E0,0E0,0E0,0E0,0E0,0E0,0E0,0E0,0E0],"parents":[2147483647,0,0,1,1,2,2,3,3,4,4,5,5,6,6,7,7,8,8,9,9,10,10,11,11,12,12,13,13,14,14,15,15,16,16,18,18,20,20,21,21,22,22,23,23,25,25,26,26,28,28,30,30],"right_children":[2,4,6,8,10,12,14,16,18,20,22,24,26,28,30,32,34,-1,36,-1,38,40,42,44,-1,46,48,-1,50,-1,52,-1,-1,-1,-1,-1,-1,-1,-1,-1,-1,-1,-1,-1,-1,-1,-1,-1,-1,-1,-1,-1,-1],"split_conditions":[1.3725E2,1.025E2,1.39E3,1.959E3,8.75E1,6.9E2,7.2E1,3.5E-2,1.0275E2,1.235E2,1.115E2,6.49E2,1.75E1,6.25E-1,1.5495E3,2.95E1,9.05E1,3.2258064E-1,3.15E1,-4.225352E-1,8.55E1,3.35E1,1.355E2,1.3E2,-4.0983605E-1,8.8E1,1.235E2,-4.5801526E-1,5E-1,-2.3809524E-1,2.242E3,-9.53698E-3,2.6005814E-2,-1.5882408E-2,2.4822696E-1,-2.669039E-1,-0E0,2.3809524E-1,-2.3809524E-1,1.2858193E-1,-0E0,2.2773856E-2,-4.225352E-1,3.7646823E-2,-1.7730497E-1,8.196721E-2,-3.9215687E-1,4.0590405E-1,-0E0,-3.2258064E-1,3.2258064E-1,3.2258064E-1,-0E0],"split_indices":[11,9,2,2,11,2,9,15,11,7,9,2,7,15,2,2,17,0,7,0,11,17,11,9,0,12,9,0,0,0,2,0,0,0,0,0,0,0,0,0,0,0,0,0,0,0,0,0,0,0,0,0,0],"split_type":[0,0,0,0,0,0,0,0,0,0,0,0,0,0,0,0,0,0,0,0,0,0,0,0,0,0,0,0,0,0,0,0,0,0,0,0,0,0,0,0,0,0,0,0,0,0,0,0,0,0,0,0,0],"sum_hessian":[9.045E3,7.963E3,1.082E3,7.331E3,6.32E2,1.056E3,2.6E1,7.283E3,4.8E1,1.1E1,6.21E2,1.016E3,4E1,1.9E1,7E0,4.058E3,3.225E3,3E0,4.5E1,7E0,4E0,1.75E2,4.46E2,1.01E3,6E0,1.1E1,2.9E1,1.3E1,6E0,2E0,5E0,2.097E3,1.961E3,3.211E3,1.4E1,2.8E1,1.7E1,2E0,2E0,1.36E2,3.9E1,4.39E2,7E0,9.96E2,1.4E1,6E0,5E0,2.7E1,2E0,3E0,3E0,3E0,2E0],"tree_param":{"num_deleted":"0","num_feature":"26","num_nodes":"53","size_leaf_vector":"0"}},{"base_weights":[-7.2904537E-3,-3.3680997E-3,-1.2716354E-1,9.2785895E-2,-8.376494E-3,-6.7873305E-1,-7.6599E-2,1.2964348E-1,-3.654485E-1,-1.1780298E-1,1.0260225E-3,-0E0,-8.187134E-1,-2.3317789E-1,1.2601261E-1,3.2258064E-1,6.555228E-2,-0E0,-7.017544E-1,-1.2609406E-1,7.8431374E-1,3.3639104E-3,-2.496329E-1,-6.451613E-1,4.7619048E-1,-0E0,-9.2715234E-1,-2.795248E-1,5.633803E-1,2.9641184E-1,-8.492569E-2,3.903559E-1,-2.1978022E-1,1.1806375E-2,3.1311154E-1,-9.90099E-2,6.451613E-1,-9.0909094E-1,-0E0,2.0618556E-1,-1.4261355E-1,1.3133528E-4,2.0851433E-1,-3.7225044E-1,4.3956044E-1,-2.0145044E-1,-7.329843E-1,-0E0,7.8431374E-1,6.042296E-1,-0E0,-5.472637E-1,2.2140221E-1],"categories":[],"categories_nodes":[],"categories_segments":[],"categories_sizes":[],"default_left":[1,1,1,1,1,1,1,1,1,1,1,1,1,1,1,1,1,1,1,1,0,1,1,0,0,0,0,1,1,1,1,0,0,0,0,0,0,0,0,0,0,0,0,0,0,0,0,0,0,0,0,0,0],"id":23,"left_children":[1,3,5,7,9,11,13,15,17,19,21,23,25,27,29,31,33,35,37,39,-1,41,43,-1,-1,-1,-1,45,47,49,51,-1,-1,-1,-1,-1,-1,-1,-1,-1,-1,-1,-1,-1,-1,-1,-1,-1,-1,-1,-1,-1,-1],"loss_changes":[4.1904697E0,4.205124E0,7.135089E0,7.0499587E0,8.837715E0,1.2809925E0,8.393423E0,4.569585E0,4.401119E0,4.431011E0,4.3230124E0,1.766513E0,1.5181437E0,5.273287E0,4.2073517E0,3.7116623E0,3.734158E0,1.3893324E0,1.5789471E0,3.6395645E0,0E0,4.9170136E0,5.703992E0,0E0,0E0,0E0,0E0,4.1170483E0,8.8373375E-1,6.4527664E0,7.0086107E0,0E0,0E0,0E0,0E0,0E0,0E0,0E0,0E0,0E0,0E0,0E0,0E0,0E0,0E0,0E0,0E0,0E0,0E0,0E0,0E0,0E0,0E0],"parents":[2147483647,0,0,1,1,2,2,3,3,4,4,5,5,6,6,7,7,8,8,9,9,10,10,11,11,12,12,13,13,14,14,15,15,16,16,17,17,18,18,19,19,21,21,22,22,27,27,28,28,29,29,30,30],"right_children":[2,4,6,8,10,12,14,16,18,20,22,24,26,28,30,32,34,36,38,40,-1,42,44,-1,-1,-1,-1,46,48,50,52,-1,-1,-1,-1,-1,-1,-1,-1,-1,-1,-1,-1,-1,-1,-1,-1,-1,-1,-1,-1,-1,-1],"split_conditions":[4.1855E1,5E-1,4.225E1,5E-1,1.05E1,1.65E1,7.15E1,2.18025E1,6.5E0,1.54E2,4.38375E1,1.4E1,2.894E1,2.6E1,4.62975E1,9.15E1,3.28925E1,4.5E0,2.7525002E1,4.5E0,3.9215687E-1,4.0275E1,4.886E1,-3.2258064E-1,2.3809524E-1,-0E0,-4.6357617E-1,6.55E1,2.25E1,4.75E1,4.3285E1,1.9517796E-1,-1.0989011E-1,5.9031877E-3,1.5655577E-1,-4.950495E-2,3.2258064E-1,-4.5454547E-1,-0E0,1.0309278E-1,-7.130677E-2,6.566764E-5,1.0425717E-1,-1.8612522E-1,2.1978022E-1,-1.0072522E-1,-3.6649215E-1,-0E0,3.9215687E-1,3.021148E-1,-0E0,-2.7363184E-1,1.1070111E-1],"split_indices":[13,8,13,22,9,7,10,13,18,10,20,8,20,18,13,10,13,18,20,10,0,20,20,0,0,0,0,10,7,7,20,0,0,0,0,0,0,0,0,0,0,0,0,0,0,0,0,0,0,0,0,0,0],"split_type":[0,0,0,0,0,0,0,0,0,0,0,0,0,0,0,0,0,0,0,0,0,0,0,0,0,0,0,0,0,0,0,0,0,0,0,0,0,0,0,0,0,0,0,0,0,0,0,0,0,0,0,0,0],"sum_hessian":[9.19E3,8.907E3,2.83E2,4.31E2,8.476E3,2.2E1,2.61E2,4.01E2,3E1,6.79E2,7.797E3,5E0,1.7E1,1.5E2,1.11E2,9.6E1,3.05E2,1.3E1,1.7E1,6.74E2,5E0,7.729E3,6.8E1,3E0,2E0,2E0,1.5E1,1.43E2,7E0,6.4E1,4.7E1,8.7E1,9E0,2.54E2,5.1E1,1E1,3E0,1.2E1,5E0,2.9E1,6.45E2,7.614E3,1.15E2,5.9E1,9E0,1.24E2,1.9E1,2E0,5E0,3.3E1,3.1E1,2E1,2.7E1],"tree_param":{"num_deleted":"0","num_feature":"26","num_nodes":"53","size_leaf_vector":"0"}},{"base_weights":[3.4133075E-3,6.641078E-3,-1.362948E-1,5.3094747E-3,3.426791E-1,-4.7091413E-1,-5.5521283E-2,6.44935E-3,-6.3829786E-1,-0E0,7.8014183E-1,-6.51341E-1,-0E0,-1.22365735E-1,5.298013E-1,5.554233E-3,4.347826E-1,-8.791209E-1,-0E0,-2.4793388E-1,4.918033E-1,9.0909094E-1,-0E0,-8.376963E-1,-0E0,3.9215687E-1,-3.9215687E-1,-4.0733197E-1,1.01936795E-2,-0E0,8.910891E-1,2.8001072E-3,9.557945E-2,6.930693E-1,-0E0,-4.7619048E-1,-0E0,-6.593407E-1,6.451613E-1,7.3170733E-1,-0E0,2.4390244E-1,-6.451613E-1,6.451613E-1,-0E0,-6.451613E-1,-0E0,4.7619048E-1,-4.670913E-1,3.202847E-1,-9.9857345E-2,-0E0,-4.7619048E-1],"categories":[],"categories_nodes":[],"categories_segments":[],"categories_sizes":[],"default_left":[1,1,1,1,1,1,1,1,1,1,1,1,1,1,1,1,1,0,1,1,1,0,0,0,1,1,1,1,1,1,0,0,0,0,0,0,0,0,0,0,0,0,0,0,0,0,0,0,0,0,0,0,0],"id":24,"left_children":[1,3,5,7,9,11,13,15,17,19,21,23,25,27,29,31,33,-1,35,37,39,-1,-1,-1,41,43,45,47,49,51,-1,-1,-1,-1,-1,-1,-1,-1,-1,-1,-1,-1,-1,-1,-1,-1,-1,-1,-1,-1,-1,-1,-1],"loss_changes":[3.9659705E0,3.6271923E0,4.8252726E0,5.8627486E0,4.81209E0,3.067257E0,5.9413023E0,2.9480228E0,1.2882862E0,2.2192116E0,1.4184399E0,2.3303442E0,1.5686275E0,5.9542503E0,3.7813916E0,2.088952E0,1.808007E0,0E0,4.7619048E-1,4.502565E0,7.1971214E-1,0E0,0E0,0E0,1.534225E0,5.060088E-1,5.060088E-1,2.6055593E0,3.57137E0,4.7619048E-1,0E0,0E0,0E0,0E0,0E0,0E0,0E0,0E0,0E0,0E0,0E0,0E0,0E0,0E0,0E0,0E0,0E0,0E0,0E0,0E0,0E0,0E0,0E0],"parents":[2147483647,0,0,1,1,2,2,3,3,4,4,5,5,6,6,7,7,8,8,9,9,10,10,11,11,12,12,13,13,14,14,15,15,16,16,18,18,19,19,20,20,24,24,25,25,26,26,27,27,28,28,29,29],"right_children":[2,4,6,8,10,12,14,16,18,20,22,24,26,28,30,32,34,-1,36,38,40,-1,-1,-1,42,44,46,48,50,52,-1,-1,-1,-1,-1,-1,-1,-1,-1,-1,-1,-1,-1,-1,-1,-1,-1,-1,-1,-1,-1,-1,-1],"split_conditions":[8.25E1,4.816E1,2.16075E1,4.777E1,2.35E1,5.75E1,3.25E1,4.71625E1,2.5E1,4.971E1,8.15E1,5E-1,7.35E1,8.55E1,1.075E2,1.255E2,1.3275E2,-4.3956044E-1,6.55E1,5.6E1,4.35E1,4.5454547E-1,-0E0,-4.1884816E-1,1.42E2,8.75E1,8.95E1,2.24575E1,8.65E1,8.85E1,4.4554454E-1,1.4000536E-3,4.7789726E-2,3.4653464E-1,-0E0,-2.3809524E-1,-0E0,-3.2967034E-1,3.2258064E-1,3.6585367E-1,-0E0,1.2195122E-1,-3.2258064E-1,3.2258064E-1,-0E0,-3.2258064E-1,-0E0,2.3809524E-1,-2.3354565E-1,1.6014235E-1,-4.9928673E-2,-0E0,-2.3809524E-1],"split_indices":[5,13,13,13,8,9,17,13,8,13,9,25,9,5,11,9,11,0,9,5,5,0,0,0,11,5,5,13,5,5,0,0,0,0,0,0,0,0,0,0,0,0,0,0,0,0,0,0,0,0,0,0,0],"split_type":[0,0,0,0,0,0,0,0,0,0,0,0,0,0,0,0,0,0,0,0,0,0,0,0,0,0,0,0,0,0,0,0,0,0,0,0,0,0,0,0,0,0,0,0,0,0,0,0,0,0,0,0,0],"sum_hessian":[9.082E3,8.884E3,1.98E2,8.852E3,3.2E1,3.6E1,1.62E2,8.838E3,1.4E1,1.8E1,1.4E1,2.6E1,1E1,1.47E2,1.5E1,8.822E3,1.6E1,9E0,5E0,1.2E1,6E0,1.2E1,2E0,1.9E1,7E0,5E0,5E0,4.9E1,9.8E1,5E0,1E1,8.571E3,2.51E2,1E1,6E0,2E0,3E0,9E0,3E0,4E0,2E0,4E0,3E0,3E0,2E0,3E0,2E0,2E0,4.7E1,2.8E1,7E1,3E0,2E0],"tree_param":{"num_deleted":"0","num_feature":"26","num_nodes":"53","size_leaf_vector":"0"}},{"base_weights":[2.644599E-3,1.4943753E-2,-4.491099E-2,1.185148E-2,3.9927405E-1,-1.8954624E-1,-2.9269459E-2,8.815458E-3,1.581596E-1,-8.264463E-2,5.5684453E-1,4.4280443E-1,-3.1271243E-1,-1.0017338E-1,1.7314518E-3,1.10408515E-2,-2.3688664E-1,-2.2624435E-1,2.3911187E-1,1.2345679E-1,-7.3170733E-1,9.160305E-1,3.654485E-1,9.356725E-1,-2.970297E-1,-3.7472448E-1,3.6036035E-1,8.436081E-2,-1.807724E-1,4.8501432E-2,-1.0253489E-1,9.1472897E-4,4.7079105E-2,3.5587188E-2,-5.1446944E-1,1.6393442E-1,-4.347826E-1,3.4571064E-1,-0E0,-2.4390244E-1,7.3170733E-1,-0E0,5.687204E-1,-7.8431374E-1,-0E0,-4.2275172E-1,4.918033E-1,8.196721E-1,-0E0,-4.874086E-2,6.430868E-1,-3.1158143E-1,-6.150692E-2,3.1039137E-1,2.054513E-2,-3.945746E-1,-1.1106998E-2],"categories":[],"categories_nodes":[],"categories_segments":[],"categories_sizes":[],"default_left":[1,1,1,1,1,1,1,1,1,1,1,1,1,1,1,1,1,1,1,1,0,0,1,0,1,1,1,1,1,1,1,0,0,0,0,0,0,0,0,0,0,0,0,0,0,0,0,0,0,0,0,0,0,0,0,0,0],"id":25,"left_children":[1,3,5,7,9,11,13,15,17,19,21,23,25,27,29,31,33,35,37,39,-1,-1,41,-1,43,45,47,49,51,53,55,-1,-1,-1,-1,-1,-1,-1,-1,-1,-1,-1,-1,-1,-1,-1,-1,-1,-1,-1,-1,-1,-1,-1,-1,-1,-1],"loss_changes":[5.278067E0,8.17748E0,3.9616172E0,3.018694E0,4.6628847E0,1.3443399E1,3.7782745E0,3.62E0,4.346843E0,2.235934E0,1.6480312E0,1.0548197E1,6.167617E0,7.8186526E0,5.579349E0,2.4970446E0,4.9506855E0,2.076191E0,2.6390543E0,2.3155677E0,0E0,0E0,2.8047109E0,0E0,2.2461658E0,5.6158066E0,2.656919E0,1.2057491E1,5.32092E0,5.5556226E0,8.968452E0,0E0,0E0,0E0,0E0,0E0,0E0,0E0,0E0,0E0,0E0,0E0,0E0,0E0,0E0,0E0,0E0,0E0,0E0,0E0,0E0,0E0,0E0,0E0,0E0,0E0,0E0],"parents":[2147483647,0,0,1,1,2,2,3,3,4,4,5,5,6,6,7,7,8,8,9,9,10,10,11,11,12,12,13,13,14,14,15,15,16,16,17,17,18,18,19,19,22,22,24,24,25,25,26,26,27,27,28,28,29,29,30,30],"right_children":[2,4,6,8,10,12,14,16,18,20,22,24,26,28,30,32,34,36,38,40,-1,-1,42,-1,44,46,48,50,52,54,56,-1,-1,-1,-1,-1,-1,-1,-1,-1,-1,-1,-1,-1,-1,-1,-1,-1,-1,-1,-1,-1,-1,-1,-1,-1,-1],"split_conditions":[1.385E2,1.325E2,1.595E2,4.3300003E1,1.095E2,1.4E1,3.15E1,4.16625E1,3.75E1,4.1E1,3.05E1,1.105E2,3.857E1,2.95E1,3.00175E1,2.87075E1,3.15E1,1.1075E2,4.741E1,1.2E1,-3.6585367E-1,4.5801526E-1,4.85E1,4.6783626E-1,7E0,1.105E2,1.535E2,6.94E2,3.05E1,1.0475E2,3.45E1,4.5736448E-4,2.3539552E-2,1.7793594E-2,-2.5723472E-1,8.196721E-2,-2.173913E-1,1.7285532E-1,-0E0,-1.2195122E-1,3.6585367E-1,-0E0,2.843602E-1,-3.9215687E-1,-0E0,-2.1137586E-1,2.4590164E-1,4.0983605E-1,-0E0,-2.437043E-2,3.215434E-1,-1.5579072E-1,-3.075346E-2,1.5519568E-1,1.0272565E-2,-1.972873E-1,-5.553499E-3],"split_indices":[2,2,2,20,11,9,5,20,5,9,9,11,20,9,20,20,7,11,20,9,0,0,9,0,7,7,2,2,7,11,9,0,0,0,0,0,0,0,0,0,0,0,0,0,0,0,0,0,0,0,0,0,0,0,0,0,0],"split_type":[0,0,0,0,0,0,0,0,0,0,0,0,0,0,0,0,0,0,0,0,0,0,0,0,0,0,0,0,0,0,0,0,0,0,0,0,0,0,0,0,0,0,0,0,0,0,0,0,0,0,0,0,0,0,0,0,0],"sum_hessian":[9.075E3,7.227E3,1.848E3,7.172E3,5.5E1,1.74E2,1.674E3,7.033E3,1.39E2,1.2E1,4.3E1,2.7E1,1.47E2,5.19E2,1.155E3,6.974E3,5.9E1,2.2E1,1.17E2,8E0,4E0,1.3E1,3E1,1.7E1,1E1,1.36E2,1.1E1,1.54E2,3.65E2,8.04E2,3.51E2,5.466E3,1.508E3,2.8E1,3.1E1,6E0,1.6E1,7.8E1,3.9E1,4E0,4E0,9E0,2.1E1,5E0,5E0,1.3E2,6E0,6E0,5E0,1.23E2,3.1E1,1.7E2,1.95E2,7.4E1,7.3E2,8.1E1,2.7E2],"tree_param":{"num_deleted":"0","num_feature":"26","num_nodes":"57","size_leaf_vector":"0"}},{"base_weights":[-2.1989863E-4,-1.1164768E-2,4.816086E-2,-1.3649137E-1,-6.6804914E-3,-9.466112E-2,7.5871445E-2,-1.9723866E-2,-3.0895984E-1,1.5688242E-2,-2.4761762E-2,-3.209537E-2,-3.6876357E-1,-1.440144E-1,9.563798E-2,-3.426791E-1,5.8284763E-2,-3.59147E-1,1.2345679E-1,-5.6617126E-2,4.8678406E-2,-6.203824E-2,4.49418E-3,-4.714757E-3,-8.196721E-1,-6.8728524E-1,1.16959065E-1,7.5329565E-2,-3.6144578E-1,1.7678256E-1,4.117874E-2,3.7037036E-1,-6.2240666E-1,1.3071896E-1,-4.5801526E-1,-4.4534412E-1,-0E0,-0E0,6.451613E-1,-2.4064492E-2,-2.2137888E-1,5.9565686E-2,-2.8744328E-1,-1.02758676E-1,3.7394214E-2,3.826802E-2,-5.2819066E-2,-1.4409222E-1,1.2025902E-1,-9.356725E-1,-2.4793388E-1,8.196721E-1,-1.8018018E-1,-2.0746888E-1,3.4364262E-1,9.90099E-2,-4.7817048E-1,4.264871E-1,1.2139966E-1,-1.6286644E-1,7.0062764E-2],"categories":[],"categories_nodes":[],"categories_segments":[],"categories_sizes":[],"default_left":[1,1,1,1,1,1,1,1,1,1,1,1,1,1,1,1,1,1,1,1,1,1,1,1,0,1,1,1,1,1,1,0,0,0,0,0,0,0,0,0,0,0,0,0,0,0,0,0,0,0,0,0,0,0,0,0,0,0,0,0,0],"id":26,"left_children":[1,3,5,7,9,11,13,15,17,19,21,23,25,27,29,31,33,35,37,39,41,43,45,47,-1,49,51,53,55,57,59,-1,-1,-1,-1,-1,-1,-1,-1,-1,-1,-1,-1,-1,-1,-1,-1,-1,-1,-1,-1,-1,-1,-1,-1,-1,-1,-1,-1,-1,-1],"loss_changes":[4.7791047E0,4.034694E0,6.5560327E0,4.68726E0,2.9151628E0,4.12712E0,6.0253277E0,4.1182923E0,2.3473663E0,7.594736E0,4.417734E0,3.878408E0,7.7106423E0,5.587449E0,5.464679E0,6.67774E0,4.1701636E0,3.2036514E0,1.1668657E0,5.0589914E0,7.817675E0,7.244911E0,4.292751E0,3.7200358E0,0E0,1.9688578E0,4.2248025E0,4.1724524E0,3.506569E0,6.487462E0,4.48829E0,0E0,0E0,0E0,0E0,0E0,0E0,0E0,0E0,0E0,0E0,0E0,0E0,0E0,0E0,0E0,0E0,0E0,0E0,0E0,0E0,0E0,0E0,0E0,0E0,0E0,0E0,0E0,0E0,0E0,0E0],"parents":[2147483647,0,0,1,1,2,2,3,3,4,4,5,5,6,6,7,7,8,8,9,9,10,10,11,11,12,12,13,13,14,14,15,15,16,16,17,17,18,18,19,19,20,20,21,21,22,22,23,23,25,25,26,26,27,27,28,28,29,29,30,30],"right_children":[2,4,6,8,10,12,14,16,18,20,22,24,26,28,30,32,34,36,38,40,42,44,46,48,-1,50,52,54,56,58,60,-1,-1,-1,-1,-1,-1,-1,-1,-1,-1,-1,-1,-1,-1,-1,-1,-1,-1,-1,-1,-1,-1,-1,-1,-1,-1,-1,-1,-1,-1],"split_conditions":[1.45E1,9.5E0,6.5E0,5.5E0,5.05E1,4.35E1,2.35E1,1.5E0,3.05E1,1.65E1,5E-1,4.18925E1,4.5E0,1.55E1,5.5E0,2.2744999E1,1.75E1,6.5E0,8.5E0,1.45E1,3.8699997E1,2.9744999E1,6.5E0,2.65E1,-4.0983605E-1,5E-1,2.507E1,5.5E0,9.5E0,1.35E1,1.05E1,1.8518518E-1,-3.1120333E-1,6.535948E-2,-2.2900763E-1,-2.2267206E-1,-0E0,-0E0,3.2258064E-1,-1.2032246E-2,-1.1068944E-1,2.9782843E-2,-1.4372164E-1,-5.1379338E-2,1.8697107E-2,1.913401E-2,-2.6409533E-2,-7.204611E-2,6.012951E-2,-4.6783626E-1,-1.2396694E-1,4.0983605E-1,-9.009009E-2,-1.0373444E-1,1.7182131E-1,4.950495E-2,-2.3908524E-1,2.1324354E-1,6.069983E-2,-8.143322E-2,3.5031382E-2],"split_indices":[18,10,17,10,10,18,10,17,7,7,0,13,3,10,1,13,7,3,10,7,20,20,3,13,0,25,13,7,7,7,17,0,0,0,0,0,0,0,0,0,0,0,0,0,0,0,0,0,0,0,0,0,0,0,0,0,0,0,0,0,0],"split_type":[0,0,0,0,0,0,0,0,0,0,0,0,0,0,0,0,0,0,0,0,0,0,0,0,0,0,0,0,0,0,0,0,0,0,0,0,0,0,0,0,0,0,0,0,0,0,0,0,0,0,0,0,0,0,0,0,0,0,0,0,0],"sum_hessian":[9.095E3,7.434E3,1.661E3,2.49E2,7.185E3,2.64E2,1.397E3,1.52E2,9.7E1,3.187E3,3.998E3,2.18E2,4.6E1,1.11E2,1.286E3,3.2E1,1.2E2,8.9E1,8E0,9.89E2,2.198E3,1.773E3,2.225E3,2.12E2,6E0,2.9E1,1.7E1,5.3E1,5.8E1,5.09E2,7.77E2,8E0,2.4E1,1.07E2,1.3E1,7.4E1,1.5E1,5E0,3E0,8.31E2,1.58E2,2.132E3,6.6E1,1.265E3,5.08E2,1.411E3,8.14E2,1.04E2,1.08E2,1.7E1,1.2E1,6E0,1.1E1,2.4E1,2.9E1,1E1,4.8E1,8.9E1,4.2E2,9.2E1,6.85E2],"tree_param":{"num_deleted":"0","num_feature":"26","num_nodes":"61","size_leaf_vector":"0"}},{"base_weights":[1.0461764E-2,9.05625E-3,2.919708E-1,9.733613E-3,-8.196721E-1,8.791209E-1,9.3457945E-2,8.852433E-3,4.964539E-1,-1.4925373E-1,5.785124E-1,1.07004875E-2,-3.253796E-1,8.196721E-1,1.2345679E-1,-5.633803E-1,-0E0,8.6419755E-1,-0E0,6.7073815E-3,9.7342804E-2,2.1978022E-1,-4.851752E-1,7.3170733E-1,-2.4390244E-1,-7.8431374E-1,-0E0,3.9215687E-1,-1.2345679E-1,-4.7619048E-1,4.7619048E-1],"categories":[],"categories_nodes":[],"categories_segments":[],"categories_sizes":[],"default_left":[1,1,1,1,0,0,1,1,1,1,1,1,1,0,1,1,1,0,1,0,0,0,0,0,0,0,0,0,0,0,0],"id":27,"left_children":[1,3,5,7,-1,-1,9,11,13,15,17,19,21,-1,23,25,27,-1,29,-1,-1,-1,-1,-1,-1,-1,-1,-1,-1,-1,-1],"loss_changes":[3.2538002E0,4.2116284E0,3.8096914E0,3.3276954E0,0E0,0E0,4.216974E0,5.197898E0,7.466402E-1,1.80576E0,1.9997959E0,2.9674582E0,4.2920203E0,0E0,2.3155677E0,8.8373375E-1,9.077705E-1,0E0,9.5238096E-1,0E0,0E0,0E0,0E0,0E0,0E0,0E0,0E0,0E0,0E0,0E0,0E0],"parents":[2147483647,0,0,1,1,2,2,3,3,6,6,7,7,8,8,9,9,10,10,11,11,12,12,14,14,15,15,16,16,18,18],"right_children":[2,4,6,8,-1,-1,10,12,14,16,18,20,22,-1,24,26,28,-1,30,-1,-1,-1,-1,-1,-1,-1,-1,-1,-1,-1,-1],"split_conditions":[2.715E2,8.8E1,2.45E1,5.7E1,-4.0983605E-1,4.3956044E-1,7.915E0,3.95E1,5E-1,5E-1,5E-1,1.75E1,1.03E2,4.0983605E-1,6.75E1,4.6E1,1.04E2,4.3209878E-1,5E-1,3.3536907E-3,4.8671402E-2,1.0989011E-1,-2.425876E-1,3.6585367E-1,-1.2195122E-1,-3.9215687E-1,-0E0,1.9607843E-1,-6.1728396E-2,-2.3809524E-1,2.3809524E-1],"split_indices":[10,3,3,3,0,0,15,3,0,0,19,3,11,0,3,3,11,0,4,0,0,0,0,0,0,0,0,0,0,0,0],"split_type":[0,0,0,0,0,0,0,0,0,0,0,0,0,0,0,0,0,0,0,0,0,0,0,0,0,0,0,0,0,0,0],"sum_hessian":[8.985E3,8.944E3,4.1E1,8.938E3,6E0,9E0,3.2E1,8.924E3,1.4E1,2E1,1.2E1,8.878E3,4.6E1,6E0,8E0,7E0,1.3E1,8E0,4E0,8.498E3,3.8E2,9E0,3.7E1,4E0,4E0,5E0,2E0,5E0,8E0,2E0,2E0],"tree_param":{"num_deleted":"0","num_feature":"26","num_nodes":"31","size_leaf_vector":"0"}},{"base_weights":[3.8845297E-3,1.2736472E-2,-1.614687E-1,6.680605E-3,1.1366028E-1,-2.8004667E-1,-0E0,7.5587663E-3,-4.5801526E-1,1.331587E-1,-3.508772E-1,-2.3740108E-1,-8.187134E-1,1.4137606E-1,-1.795735E-1,6.582134E-3,3.8674033E-1,-0E0,-8.450704E-1,2.4443237E-1,5.472455E-2,4.7619048E-1,-5.298013E-1,-3.2508492E-1,2.639296E-1,-0E0,-9.219858E-1,-2.9520294E-1,3.034134E-1,3.8314175E-2,-2.8526148E-1,9.549665E-4,6.231824E-2,-1.6393442E-1,7.4380165E-1,6.451613E-1,-6.451613E-1,2.929351E-1,-4.950495E-1,1.9372337E-2,5.590062E-1,-7.4380165E-1,-0E0,-8.074534E-1,-2.7880064E-1,3.9145908E-1,-1.6393442E-1,-4.7393364E-1,1.6393442E-1,5.498282E-1,1.3972056E-1,7.3170733E-1,-4.524887E-2,-7.94702E-1,-1.03950106E-1],"categories":[],"categories_nodes":[],"categories_segments":[],"categories_sizes":[],"default_left":[1,1,1,1,1,1,1,1,1,1,1,1,1,1,1,1,1,1,0,1,1,0,1,1,1,0,0,1,1,1,1,0,0,0,0,0,0,0,0,0,0,0,0,0,0,0,0,0,0,0,0,0,0,0,0],"id":28,"left_children":[1,3,5,7,9,11,13,15,17,19,21,23,25,27,29,31,33,35,-1,37,39,-1,41,43,45,-1,-1,47,49,51,53,-1,-1,-1,-1,-1,-1,-1,-1,-1,-1,-1,-1,-1,-1,-1,-1,-1,-1,-1,-1,-1,-1,-1,-1],"loss_changes":[1.3039532E1,5.110132E0,8.376145E0,2.848424E0,4.090288E0,4.83049E0,4.9938173E0,2.5949507E0,2.322331E0,3.6976442E0,2.6093378E0,1.0624194E1,5.2382755E-1,7.5229044E0,2.2998452E0,2.4621525E0,4.1509666E0,2.580645E0,0E0,6.4154816E0,4.3070493E0,0E0,2.4558043E0,3.4926376E0,2.0946174E0,0E0,0E0,2.5416472E0,2.493373E0,2.202057E0,4.9214673E0,0E0,0E0,0E0,0E0,0E0,0E0,0E0,0E0,0E0,0E0,0E0,0E0,0E0,0E0,0E0,0E0,0E0,0E0,0E0,0E0,0E0,0E0,0E0,0E0],"parents":[2147483647,0,0,1,1,2,2,3,3,4,4,5,5,6,6,7,7,8,8,9,9,10,10,11,11,12,12,13,13,14,14,15,15,16,16,17,17,19,19,20,20,22,22,23,23,24,24,27,27,28,28,29,29,30,30],"right_children":[2,4,6,8,10,12,14,16,18,20,22,24,26,28,30,32,34,36,-1,38,40,-1,42,44,46,-1,-1,48,50,52,54,-1,-1,-1,-1,-1,-1,-1,-1,-1,-1,-1,-1,-1,-1,-1,-1,-1,-1,-1,-1,-1,-1,-1,-1],"split_conditions":[7.215E2,3.245E2,1.75E1,3.215E2,5E-1,1.445E2,1.2525E2,6.5E0,1.125E2,2.85E1,1.5E0,1.315E2,2.5E0,1.055E2,4E0,5E-1,7.5E0,2.55E1,-4.225352E-1,6.97E2,6.765E2,2.3809524E-1,6.5E0,7.535E2,1.415E2,-0E0,-4.609929E-1,8.55E1,2.25E1,2.5E0,1.325E2,4.7748326E-4,3.115912E-2,-8.196721E-2,3.7190083E-1,3.2258064E-1,-3.2258064E-1,1.4646755E-1,-2.4752475E-1,9.686168E-3,2.795031E-1,-3.7190083E-1,-0E0,-4.037267E-1,-1.3940032E-1,1.9572954E-1,-8.196721E-2,-2.3696682E-1,8.196721E-2,2.749141E-1,6.986028E-2,3.6585367E-1,-2.2624435E-2,-3.97351E-1,-5.1975053E-2],"split_indices":[2,2,8,2,21,11,11,19,11,7,7,11,8,11,1,21,2,8,0,2,2,0,3,2,11,0,0,7,8,3,11,0,0,0,0,0,0,0,0,0,0,0,0,0,0,0,0,0,0,0,0,0,0,0,0],"split_type":[0,0,0,0,0,0,0,0,0,0,0,0,0,0,0,0,0,0,0,0,0,0,0,0,0,0,0,0,0,0,0,0,0,0,0,0,0,0,0,0,0,0,0,0,0,0,0,0,0,0,0,0,0,0,0],"sum_hessian":[9.01E3,8.558E3,4.52E2,8.083E3,4.75E2,2.57E2,1.95E2,8.07E3,1.3E1,4.58E2,1.7E1,2.4E2,1.7E1,1.06E2,8.9E1,8.052E3,1.8E1,6E0,7E0,1.84E2,2.74E2,2E0,1.5E1,2.06E2,3.4E1,3E0,1.4E1,2.7E1,7.9E1,2.6E1,6.3E1,7.33E3,7.22E2,6E0,1.2E1,3E0,3E0,1.74E2,1E1,2.58E2,1.6E1,1.2E1,3E0,1.6E1,1.9E2,2.8E1,6E0,2.1E1,6E0,2.9E1,5E1,4E0,2.2E1,1.5E1,4.8E1],"tree_param":{"num_deleted":"0","num_feature":"26","num_nodes":"55","size_leaf_vector":"0"}},{"base_weights":[-3.4193313E-3,9.320586E-3,-4.936779E-2,8.620568E-3,7.8431374E-1,-8.737928E-2,7.341827E-2,-2.6954177E-1,1.0228581E-2,4.9726505E-2,-1.0900008E-1,2.3860654E-2,5.2154195E-1,7.092199E-2,-5.194805E-1,2.5705172E-2,-1.4540845E-2,8.196721E-1,2.0502307E-2,-9.859483E-2,-4.833837E-1,-4.0103123E-2,3.566334E-1,6.6496164E-1,-3.9215687E-1,-2.8169015E-1,5.633803E-1,-0E0,-6.467662E-1,3.2065745E-2,-1.4955813E-1,-1.7308524E-1,-0E0,3.2258064E-1,-3.7243947E-2,-1.0612373E-1,4.347826E-1,-6.374502E-1,-0E0,4.589495E-2,-1.5676029E-1,1.2738854E-1,7.7922076E-1,7.479224E-1,-0E0,-0E0,-6.451613E-1],"categories":[],"categories_nodes":[],"categories_segments":[],"categories_sizes":[],"default_left":[1,1,1,1,0,1,1,1,1,1,1,1,1,1,1,1,1,0,1,1,1,1,1,1,1,0,0,0,0,0,0,0,0,0,0,0,0,0,0,0,0,0,0,0,0,0,0],"id":29,"left_children":[1,3,5,7,-1,9,11,13,15,17,19,21,23,25,27,29,31,-1,33,35,37,39,41,43,45,-1,-1,-1,-1,-1,-1,-1,-1,-1,-1,-1,-1,-1,-1,-1,-1,-1,-1,-1,-1,-1,-1],"loss_changes":[5.3472023E0,3.0479507E0,9.279621E0,2.906021E0,0E0,4.5718317E0,9.73785E0,3.60927E0,2.7096143E0,3.6831048E0,4.5596714E0,9.238671E0,6.0778513E0,2.7459795E0,2.1741939E0,4.7401757E0,6.356317E0,0E0,3.6898415E0,4.8486385E0,2.4650645E0,3.6138577E0,5.8744707E0,2.9049015E0,5.060088E-1,0E0,0E0,0E0,0E0,0E0,0E0,0E0,0E0,0E0,0E0,0E0,0E0,0E0,0E0,0E0,0E0,0E0,0E0,0E0,0E0,0E0,0E0],"parents":[2147483647,0,0,1,1,2,2,3,3,5,5,6,6,7,7,8,8,9,9,10,10,11,11,12,12,13,13,14,14,15,15,16,16,18,18,19,19,20,20,21,21,22,22,23,23,24,24],"right_children":[2,4,6,8,-1,10,12,14,16,18,20,22,24,26,28,30,32,-1,34,36,38,40,42,44,46,-1,-1,-1,-1,-1,-1,-1,-1,-1,-1,-1,-1,-1,-1,-1,-1,-1,-1,-1,-1,-1,-1],"split_conditions":[5.95E1,4.971E1,3.09875E1,4.375E1,3.9215687E-1,5.475E1,1.85E1,5E-1,6.925E1,6.05E1,3.0564999E1,7.45E1,7.55E1,2.6265E1,3.75E1,2.5E0,1.65E1,4.0983605E-1,9.5E0,3.039E1,3.65E0,3.60975E1,3.67025E1,3.0300002E0,4.5E0,-1.4084508E-1,2.8169015E-1,-0E0,-3.233831E-1,1.6032873E-2,-7.477906E-2,-8.654262E-2,-0E0,1.6129032E-1,-1.8621974E-2,-5.3061865E-2,2.173913E-1,-3.187251E-1,-0E0,2.2947475E-2,-7.8380145E-2,6.369427E-2,3.8961038E-1,3.739612E-1,-0E0,-0E0,-3.2258064E-1],"split_indices":[5,13,13,12,0,12,18,4,12,5,13,5,5,13,12,16,5,0,17,13,15,13,13,15,3,0,0,0,0,0,0,0,0,0,0,0,0,0,0,0,0,0,0,0,0,0,0],"split_type":[0,0,0,0,0,0,0,0,0,0,0,0,0,0,0,0,0,0,0,0,0,0,0,0,0,0,0,0,0,0,0,0,0,0,0,0,0,0,0,0,0,0,0,0,0,0,0],"sum_hessian":[9.066E3,7.081E3,1.985E3,7.076E3,5E0,1.522E3,4.63E2,3.7E1,7.039E3,2.01E2,1.321E3,4.19E2,4.4E1,1.4E1,2.3E1,4.357E3,2.682E3,6E0,1.95E2,1.288E3,3.3E1,3.49E2,7E1,3.9E1,5E0,7E0,7E0,3E0,2E1,4.21E3,1.47E2,2.31E2,2.451E3,3.4E1,1.61E2,1.272E3,1.6E1,2.5E1,8E0,1.96E2,1.53E2,4.7E1,2.3E1,3.6E1,3E0,2E0,3E0],"tree_param":{"num_deleted":"0","num_feature":"26","num_nodes":"47","size_leaf_vector":"0"}},{"base_weights":[4.229224E-3,1.1548544E-3,8.2796685E-2,4.379683E-3,-1.2316438E-1,4.2194095E-2,7.1823204E-1,-0E0,6.49009E-2,-2.4650232E-1,1.6366611E-1,-7.293946E-2,1.4026885E-1,-0E0,9.160305E-1,5.035315E-3,-6.979815E-2,-1.1912641E-1,1.3361967E-1,-9.365244E-2,-4.990758E-1,-2.1691974E-2,7.94702E-1,2.8490028E-1,-2.056807E-1,9.009009E-1,8.119925E-2,6.451613E-1,-4.7619048E-1,-1.8731719E-3,1.2496937E-1,-3.8507822E-1,-8.9465445E-3,2.4660913E-2,-2.9957205E-1,9.8959655E-2,6.374502E-1,1.330377E-1,-3.1311154E-1,-0E0,-5.7026476E-1,-1.312336E-1,